{"epoch": 2, "step": 10, "batch_idx": 5, "parameters": {"cell0.Wci": {"mean": 0.9982934594154358, "std": 0.02943049743771553, "min": 0.8513433337211609, "max": 1.1714317798614502, "norm": 110.71015437280359, "shape": [3, 64, 64]}, "cell0.Wcf": {"mean": 0.9999322891235352, "std": 0.03446313738822937, "min": 0.8366959691047668, "max": 1.1748837232589722, "norm": 110.90956074235665, "shape": [3, 64, 64]}, "cell0.Wco": {"mean": 0.9997193217277527, "std": 0.0252802986651659, "min": 0.821723222732544, "max": 1.15920090675354, "norm": 110.85556833668754, "shape": [3, 64, 64]}, "cell0.bi": {"mean": 0.009238000027835369, "std": 0.029585914686322212, "min": -0.030667856335639954, "max": 0.040082741528749466, "norm": 0.05368427351694915, "shape": [3, 1, 1]}, "cell0.bf": {"mean": -0.07573244720697403, "std": 0.015199137851595879, "min": -0.09474711865186691, "max": -0.057544536888599396, "norm": 0.1337880879387549, "shape": [3, 1, 1]}, "cell0.bc": {"mean": -0.0013239554828032851, "std": 0.012348688207566738, "min": -0.014140438288450241, "max": 0.015357478521764278, "norm": 0.021511133690775345, "shape": [3, 1, 1]}, "cell0.bo": {"mean": 0.04476109519600868, "std": 0.038287512958049774, "min": -0.008622009307146072, "max": 0.07930018752813339, "norm": 0.10202189771397419, "shape": [3, 1, 1]}, "cell0.Wxi.weight": {"mean": 0.0012096987338736653, "std": 0.08841419219970703, "min": -0.2603248655796051, "max": 0.31580430269241333, "norm": 3.37630253840967, "shape": [3, 54, 3, 3]}, "cell0.Wxi.bias": {"mean": 0.009238000027835369, "std": 0.029585914686322212, "min": -0.030667856335639954, "max": 0.040082741528749466, "norm": 0.05368427351694915, "shape": [3]}, "cell0.Whi.weight": {"mean": -0.06499902904033661, "std": 0.18705397844314575, "min": -0.4641065299510956, "max": 0.3258252739906311, "norm": 1.7822287029096737, "shape": [3, 3, 3, 3]}, "cell0.Whi.bias": {"mean": 0.009238000027835369, "std": 0.029585914686322212, "min": -0.030667856335639954, "max": 0.040082741528749466, "norm": 0.05368427351694915, "shape": [3]}, "cell0.Wxf.weight": {"mean": 0.0006443274323828518, "std": 0.09111439436674118, "min": -0.2909817397594452, "max": 0.28585973381996155, "norm": 3.4791776615052847, "shape": [3, 54, 3, 3]}, "cell0.Wxf.bias": {"mean": -0.07573244720697403, "std": 0.015199137851595879, "min": -0.09474711865186691, "max": -0.057544536888599396, "norm": 0.1337880879387549, "shape": [3]}, "cell0.Whf.weight": {"mean": 0.027621984481811523, "std": 0.22178883850574493, "min": -0.454060822725296, "max": 0.4407305121421814, "norm": 2.0115204648563454, "shape": [3, 3, 3, 3]}, "cell0.Whf.bias": {"mean": -0.07573244720697403, "std": 0.015199137851595879, "min": -0.09474711865186691, "max": -0.057544536888599396, "norm": 0.1337880879387549, "shape": [3]}, "cell0.Wxo.weight": {"mean": -0.0011761542409658432, "std": 0.08789792656898499, "min": -0.3031128942966461, "max": 0.24722401797771454, "norm": 3.356574163996411, "shape": [3, 54, 3, 3]}, "cell0.Wxo.bias": {"mean": 0.04476109519600868, "std": 0.038287512958049774, "min": -0.008622009307146072, "max": 0.07930018752813339, "norm": 0.10202189771397419, "shape": [3]}, "cell0.Who.weight": {"mean": -0.03387700021266937, "std": 0.1863527148962021, "min": -0.4227808117866516, "max": 0.27321377396583557, "norm": 1.704662294140279, "shape": [3, 3, 3, 3]}, "cell0.Who.bias": {"mean": 0.04476109519600868, "std": 0.038287512958049774, "min": -0.008622009307146072, "max": 0.07930018752813339, "norm": 0.10202189771397419, "shape": [3]}, "cell0.Wxc.weight": {"mean": -0.002208907622843981, "std": 0.10313083231449127, "min": -0.527981162071228, "max": 0.41705262660980225, "norm": 3.9388269277582504, "shape": [3, 54, 3, 3]}, "cell0.Wxc.bias": {"mean": -0.0013239554828032851, "std": 0.012348688207566738, "min": -0.014140438288450241, "max": 0.015357478521764278, "norm": 0.021511133690775345, "shape": [3]}, "cell0.Whc.weight": {"mean": -0.0008055056096054614, "std": 0.17768573760986328, "min": -0.3183686435222626, "max": 0.3393290340900421, "norm": 1.5991881098791376, "shape": [3, 3, 3, 3]}, "cell0.Whc.bias": {"mean": -0.0013239554828032851, "std": 0.012348688207566738, "min": -0.014140438288450241, "max": 0.015357478521764278, "norm": 0.021511133690775345, "shape": [3]}, "cell1.Wci": {"mean": 0.9990841746330261, "std": 0.02570982277393341, "min": 0.8383049368858337, "max": 1.158092975616455, "norm": 221.57276069329913, "shape": [48, 32, 32]}, "cell1.Wcf": {"mean": 0.9986894130706787, "std": 0.02524789422750473, "min": 0.8273733854293823, "max": 1.1546659469604492, "norm": 221.48263722863243, "shape": [48, 32, 32]}, "cell1.Wco": {"mean": 0.9991214871406555, "std": 0.03833683952689171, "min": 0.6332104206085205, "max": 1.2408479452133179, "norm": 221.67072462607686, "shape": [48, 32, 32]}, "cell1.bi": {"mean": -0.005803743377327919, "std": 0.028109585866332054, "min": -0.06323548406362534, "max": 0.06316971033811569, "norm": 0.19885658555102476, "shape": [48, 1, 1]}, "cell1.bf": {"mean": -0.038977403193712234, "std": 0.035426605492830276, "min": -0.10669881850481033, "max": 0.07054959237575531, "norm": 0.3649185773749084, "shape": [48, 1, 1]}, "cell1.bc": {"mean": -0.0021842103451490402, "std": 0.017553359270095825, "min": -0.04089329391717911, "max": 0.04056822136044502, "norm": 0.12255112750651631, "shape": [48, 1, 1]}, "cell1.bo": {"mean": -0.00711677223443985, "std": 0.03411351889371872, "min": -0.08419153094291687, "max": 0.07307520508766174, "norm": 0.24143379356754596, "shape": [48, 1, 1]}, "cell1.Wxi.weight": {"mean": -0.003807729808613658, "std": 0.08563107252120972, "min": -0.7232245802879333, "max": 0.6194865703582764, "norm": 24.6861129950563, "shape": [48, 192, 3, 3]}, "cell1.Wxi.bias": {"mean": -0.005803743377327919, "std": 0.028109585866332054, "min": -0.06323548406362534, "max": 0.06316971033811569, "norm": 0.19885658555102476, "shape": [48]}, "cell1.Whi.weight": {"mean": -0.0019395737908780575, "std": 0.07377198338508606, "min": -0.4448203444480896, "max": 0.36301106214523315, "norm": 10.626837358368244, "shape": [48, 48, 3, 3]}, "cell1.Whi.bias": {"mean": -0.005803743377327919, "std": 0.028109585866332054, "min": -0.06323548406362534, "max": 0.06316971033811569, "norm": 0.19885658555102476, "shape": [48]}, "cell1.Wxf.weight": {"mean": -0.0035365859512239695, "std": 0.07394357025623322, "min": -0.6488661766052246, "max": 0.5852688550949097, "norm": 21.320088487051436, "shape": [48, 192, 3, 3]}, "cell1.Wxf.bias": {"mean": -0.038977403193712234, "std": 0.035426605492830276, "min": -0.10669881850481033, "max": 0.07054959237575531, "norm": 0.3649185773749084, "shape": [48]}, "cell1.Whf.weight": {"mean": -0.0033250804990530014, "std": 0.07087526470422745, "min": -0.39922359585762024, "max": 0.29479900002479553, "norm": 10.217262276426743, "shape": [48, 48, 3, 3]}, "cell1.Whf.bias": {"mean": -0.038977403193712234, "std": 0.035426605492830276, "min": -0.10669881850481033, "max": 0.07054959237575531, "norm": 0.3649185773749084, "shape": [48]}, "cell1.Wxo.weight": {"mean": -0.005520438309758902, "std": 0.08872459083795547, "min": -0.9209852814674377, "max": 0.643317461013794, "norm": 25.602092943467287, "shape": [48, 192, 3, 3]}, "cell1.Wxo.bias": {"mean": -0.00711677223443985, "std": 0.03411351889371872, "min": -0.08419153094291687, "max": 0.07307520508766174, "norm": 0.24143379356754596, "shape": [48]}, "cell1.Who.weight": {"mean": -0.0027318622451275587, "std": 0.0719074010848999, "min": -0.3604269027709961, "max": 0.3373948633670807, "norm": 10.362134931182437, "shape": [48, 48, 3, 3]}, "cell1.Who.bias": {"mean": -0.00711677223443985, "std": 0.03411351889371872, "min": -0.08419153094291687, "max": 0.07307520508766174, "norm": 0.24143379356754596, "shape": [48]}, "cell1.Wxc.weight": {"mean": -0.0039029617328196764, "std": 0.0706147626042366, "min": -0.694473922252655, "max": 0.7691790461540222, "norm": 20.368088749478694, "shape": [48, 192, 3, 3]}, "cell1.Wxc.bias": {"mean": -0.0021842103451490402, "std": 0.017553359270095825, "min": -0.04089329391717911, "max": 0.04056822136044502, "norm": 0.12255112750651631, "shape": [48]}, "cell1.Whc.weight": {"mean": -0.00023624402820132673, "std": 0.06134278327226639, "min": -0.3496067523956299, "max": 0.37667277455329895, "norm": 8.833425365424414, "shape": [48, 48, 3, 3]}, "cell1.Whc.bias": {"mean": -0.0021842103451490402, "std": 0.017553359270095825, "min": -0.04089329391717911, "max": 0.04056822136044502, "norm": 0.12255112750651631, "shape": [48]}, "cell2.Wci": {"mean": 0.9963619112968445, "std": 0.03192882984876633, "min": 0.7732983827590942, "max": 1.2138055562973022, "norm": 156.27719763292404, "shape": [96, 16, 16]}, "cell2.Wcf": {"mean": 0.9965248107910156, "std": 0.030100837349891663, "min": 0.7314437627792358, "max": 1.1959490776062012, "norm": 156.29378136621432, "shape": [96, 16, 16]}, "cell2.Wco": {"mean": 1.0006805658340454, "std": 0.04295160621404648, "min": 0.7399470806121826, "max": 1.2909586429595947, "norm": 157.01847895829013, "shape": [96, 16, 16]}, "cell2.bi": {"mean": -0.040570247918367386, "std": 0.048521123826503754, "min": -0.15447992086410522, "max": 0.07135836035013199, "norm": 0.6196962865532611, "shape": [96, 1, 1]}, "cell2.bf": {"mean": -0.1415240317583084, "std": 0.05691942572593689, "min": -0.2632085978984833, "max": 0.03358164802193642, "norm": 1.494594131159889, "shape": [96, 1, 1]}, "cell2.bc": {"mean": -0.003620412200689316, "std": 0.02968026138842106, "min": -0.0979917123913765, "max": 0.07902730256319046, "norm": 0.2929614765535924, "shape": [96, 1, 1]}, "cell2.bo": {"mean": -0.046174898743629456, "std": 0.03940245509147644, "min": -0.16224023699760437, "max": 0.05794365331530571, "norm": 0.5947510161485365, "shape": [96, 1, 1]}, "cell2.Wxi.weight": {"mean": -0.006389211863279343, "std": 0.05885143578052521, "min": -0.5821762681007385, "max": 0.5420318841934204, "norm": 34.097584425760644, "shape": [96, 384, 3, 3]}, "cell2.Wxi.bias": {"mean": -0.040570247918367386, "std": 0.048521123826503754, "min": -0.15447992086410522, "max": 0.07135836035013199, "norm": 0.6196962865532611, "shape": [96]}, "cell2.Whi.weight": {"mean": -0.0028403543401509523, "std": 0.08891943842172623, "min": -0.5559707880020142, "max": 0.49440550804138184, "norm": 25.62185694329465, "shape": [96, 96, 3, 3]}, "cell2.Whi.bias": {"mean": -0.040570247918367386, "std": 0.048521123826503754, "min": -0.15447992086410522, "max": 0.07135836035013199, "norm": 0.6196962865532611, "shape": [96]}, "cell2.Wxf.weight": {"mean": -0.006719987839460373, "std": 0.04973304644227028, "min": -0.4198719561100006, "max": 0.33766719698905945, "norm": 28.906532937804474, "shape": [96, 384, 3, 3]}, "cell2.Wxf.bias": {"mean": -0.1415240317583084, "std": 0.05691942572593689, "min": -0.2632085978984833, "max": 0.03358164802193642, "norm": 1.494594131159889, "shape": [96]}, "cell2.Whf.weight": {"mean": 0.0057462225668132305, "std": 0.07552718371152878, "min": -0.4395594894886017, "max": 0.36750656366348267, "norm": 21.81469085970937, "shape": [96, 96, 3, 3]}, "cell2.Whf.bias": {"mean": -0.1415240317583084, "std": 0.05691942572593689, "min": -0.2632085978984833, "max": 0.03358164802193642, "norm": 1.494594131159889, "shape": [96]}, "cell2.Wxo.weight": {"mean": -0.0057740043848752975, "std": 0.06364596635103226, "min": -0.5644848942756653, "max": 0.576133131980896, "norm": 36.81060319816153, "shape": [96, 384, 3, 3]}, "cell2.Wxo.bias": {"mean": -0.046174898743629456, "std": 0.03940245509147644, "min": -0.16224023699760437, "max": 0.05794365331530571, "norm": 0.5947510161485365, "shape": [96]}, "cell2.Who.weight": {"mean": -0.0018249996937811375, "std": 0.0835510715842247, "min": -0.45293399691581726, "max": 0.44829604029655457, "norm": 24.068447418410944, "shape": [96, 96, 3, 3]}, "cell2.Who.bias": {"mean": -0.046174898743629456, "std": 0.03940245509147644, "min": -0.16224023699760437, "max": 0.05794365331530571, "norm": 0.5947510161485365, "shape": [96]}, "cell2.Wxc.weight": {"mean": -0.0032385801896452904, "std": 0.0578862763941288, "min": -0.6754943132400513, "max": 0.4688619077205658, "norm": 33.394613267898464, "shape": [96, 384, 3, 3]}, "cell2.Wxc.bias": {"mean": -0.003620412200689316, "std": 0.02968026138842106, "min": -0.0979917123913765, "max": 0.07902730256319046, "norm": 0.2929614765535924, "shape": [96]}, "cell2.Whc.weight": {"mean": -0.0016162879765033722, "std": 0.06332076340913773, "min": -0.4084223210811615, "max": 0.32715409994125366, "norm": 18.24231882313545, "shape": [96, 96, 3, 3]}, "cell2.Whc.bias": {"mean": -0.003620412200689316, "std": 0.02968026138842106, "min": -0.0979917123913765, "max": 0.07902730256319046, "norm": 0.2929614765535924, "shape": [96]}, "cell3.Wci": {"mean": 0.9998049139976501, "std": 0.017741993069648743, "min": 0.798713743686676, "max": 1.1427483558654785, "norm": 110.84707582408298, "shape": [192, 8, 8]}, "cell3.Wcf": {"mean": 0.9985060095787048, "std": 0.013489599339663982, "min": 0.7601621747016907, "max": 1.120772123336792, "norm": 110.69574009418791, "shape": [192, 8, 8]}, "cell3.Wco": {"mean": 1.0033646821975708, "std": 0.029846319928765297, "min": 0.7806434035301208, "max": 1.3248015642166138, "norm": 111.27344380792302, "shape": [192, 8, 8]}, "cell3.bi": {"mean": -0.13763926923274994, "std": 0.05753860995173454, "min": -0.27016445994377136, "max": 0.036877844482660294, "norm": 2.0671258549570544, "shape": [192, 1, 1]}, "cell3.bf": {"mean": -0.19789588451385498, "std": 0.0824056938290596, "min": -0.3641464412212372, "max": 0.05183570832014084, "norm": 2.9703650648993323, "shape": [192, 1, 1]}, "cell3.bc": {"mean": -0.007727434393018484, "std": 0.05102384835481644, "min": -0.13635322451591492, "max": 0.12926700711250305, "norm": 0.7150693026881675, "shape": [192, 1, 1]}, "cell3.bo": {"mean": -0.15270154178142548, "std": 0.05059366300702095, "min": -0.2650514245033264, "max": 0.030314458534121513, "norm": 2.2290078103573423, "shape": [192, 1, 1]}, "cell3.Wxi.weight": {"mean": -0.012006781995296478, "std": 0.029686367139220238, "min": -0.3285028040409088, "max": 0.3202142119407654, "norm": 26.085077619475516, "shape": [192, 384, 3, 3]}, "cell3.Wxi.bias": {"mean": -0.13763926923274994, "std": 0.05753860995173454, "min": -0.27016445994377136, "max": 0.036877844482660294, "norm": 2.0671258549570544, "shape": [192]}, "cell3.Whi.weight": {"mean": 0.003738060826435685, "std": 0.04642395302653313, "min": -0.37329158186912537, "max": 0.43896687030792236, "norm": 26.82670761034491, "shape": [192, 192, 3, 3]}, "cell3.Whi.bias": {"mean": -0.13763926923274994, "std": 0.05753860995173454, "min": -0.27016445994377136, "max": 0.036877844482660294, "norm": 2.0671258549570544, "shape": [192]}, "cell3.Wxf.weight": {"mean": -0.01227335911244154, "std": 0.02404746599495411, "min": -0.2739258408546448, "max": 0.20051200687885284, "norm": 21.992546899816425, "shape": [192, 384, 3, 3]}, "cell3.Wxf.bias": {"mean": -0.19789588451385498, "std": 0.0824056938290596, "min": -0.3641464412212372, "max": 0.05183570832014084, "norm": 2.9703650648993323, "shape": [192]}, "cell3.Whf.weight": {"mean": 0.0032887731213122606, "std": 0.03507512807846069, "min": -0.23096725344657898, "max": 0.40360724925994873, "norm": 20.291869029994963, "shape": [192, 192, 3, 3]}, "cell3.Whf.bias": {"mean": -0.19789588451385498, "std": 0.0824056938290596, "min": -0.3641464412212372, "max": 0.05183570832014084, "norm": 2.9703650648993323, "shape": [192]}, "cell3.Wxo.weight": {"mean": -0.011747308075428009, "std": 0.032376479357481, "min": -0.44499558210372925, "max": 0.44272279739379883, "norm": 28.055789408532732, "shape": [192, 384, 3, 3]}, "cell3.Wxo.bias": {"mean": -0.15270154178142548, "std": 0.05059366300702095, "min": -0.2650514245033264, "max": 0.030314458534121513, "norm": 2.2290078103573423, "shape": [192]}, "cell3.Who.weight": {"mean": 0.00417584041133523, "std": 0.047434791922569275, "min": -0.3615582585334778, "max": 0.4312242865562439, "norm": 27.428079782348508, "shape": [192, 192, 3, 3]}, "cell3.Who.bias": {"mean": -0.15270154178142548, "std": 0.05059366300702095, "min": -0.2650514245033264, "max": 0.030314458534121513, "norm": 2.2290078103573423, "shape": [192]}, "cell3.Wxc.weight": {"mean": -0.0012266093399375677, "std": 0.03987486660480499, "min": -0.36806386709213257, "max": 0.30076470971107483, "norm": 32.4968447987647, "shape": [192, 384, 3, 3]}, "cell3.Wxc.bias": {"mean": -0.007727434393018484, "std": 0.05102384835481644, "min": -0.13635322451591492, "max": 0.12926700711250305, "norm": 0.7150693026881675, "shape": [192]}, "cell3.Whc.weight": {"mean": -0.0010597269283607602, "std": 0.046346668154001236, "min": -0.37244871258735657, "max": 0.2973054349422455, "norm": 26.702651857276976, "shape": [192, 192, 3, 3]}, "cell3.Whc.bias": {"mean": -0.007727434393018484, "std": 0.05102384835481644, "min": -0.13635322451591492, "max": 0.12926700711250305, "norm": 0.7150693026881675, "shape": [192]}, "conv0.0.weight": {"mean": 0.02645265869796276, "std": 0.2000441700220108, "min": -0.3404817283153534, "max": 0.4370306134223938, "norm": 1.8160700661254523, "shape": [3, 3, 3, 3]}, "conv0.0.bias": {"mean": -0.03209163621068001, "std": 0.03907482698559761, "min": -0.06508825719356537, "max": 0.022795220836997032, "norm": 0.08757936675852866, "shape": [3]}, "conv1.0.weight": {"mean": -0.0028727585449814796, "std": 0.04967571794986725, "min": -0.15323199331760406, "max": 0.1298592984676361, "norm": 7.165254882623436, "shape": [48, 48, 3, 3]}, "conv1.0.bias": {"mean": -0.011993600986897945, "std": 0.006709172856062651, "min": -0.030057478696107864, "max": 0.0007817545556463301, "norm": 0.09521162565612887, "shape": [48]}, "conv2.0.weight": {"mean": 0.006712502799928188, "std": 0.05002211406826973, "min": -0.22855167090892792, "max": 0.2748967707157135, "norm": 14.535497951002357, "shape": [96, 96, 3, 3]}, "conv2.0.bias": {"mean": -0.07591500133275986, "std": 0.022588148713111877, "min": -0.14177486300468445, "max": -0.02772028185427189, "norm": 0.7760399086610138, "shape": [96]}, "conv3.0.weight": {"mean": 0.0018316307105123997, "std": 0.02907264605164528, "min": -0.3343026041984558, "max": 0.2608887255191803, "norm": 16.779032129102475, "shape": [192, 192, 3, 3]}, "conv3.0.bias": {"mean": -0.03912657871842384, "std": 0.01574641466140747, "min": -0.08819451928138733, "max": -0.010359766893088818, "norm": 0.5844116943996772, "shape": [192]}, "update_A0.0.weight": {"mean": -0.003130241297185421, "std": 0.0603046715259552, "min": -0.23791037499904633, "max": 0.20470641553401947, "norm": 3.074345936258803, "shape": [48, 6, 3, 3]}, "update_A0.0.bias": {"mean": -0.00016337598208338022, "std": 0.0007271591457538307, "min": -0.0020044702105224133, "max": 0.0013399114832282066, "norm": 0.005163496950543123, "shape": [48]}, "update_A1.0.weight": {"mean": -0.0035491441376507282, "std": 0.04161251708865166, "min": -0.21674883365631104, "max": 0.2154426872730255, "norm": 12.027914005846203, "shape": [96, 96, 3, 3]}, "update_A1.0.bias": {"mean": 0.0005334738525561988, "std": 0.001181814935989678, "min": -0.0026296430733054876, "max": 0.0032833744771778584, "norm": 0.012704447064278607, "shape": [96]}, "update_A2.0.weight": {"mean": -0.002385892206802964, "std": 0.03639758378267288, "min": -0.20910905301570892, "max": 0.2602355182170868, "norm": 21.00998196193932, "shape": [192, 192, 3, 3]}, "update_A2.0.bias": {"mean": 0.0008519448456354439, "std": 0.0016054419102147222, "min": -0.0037881857715547085, "max": 0.006192347966134548, "norm": 0.025183818934620055, "shape": [192]}}}
