{"epoch": 1, "step": 0, "batch_idx": 0, "parameters": {"alpha_E0": {"mean": 0.49900001287460327, "std": 0.0, "min": 0.49900001287460327, "max": 0.49900001287460327, "norm": 0.499000011274953, "shape": []}, "cell0.Wci": {"mean": 0.9998909831047058, "std": 0.0006651458679698408, "min": 0.9990100264549255, "max": 1.0009888410568237, "norm": 110.83919059554252, "shape": [3, 64, 64]}, "cell0.Wcf": {"mean": 0.9998562932014465, "std": 0.0007009105174802244, "min": 0.9990054368972778, "max": 1.0009924173355103, "norm": 110.83536671850281, "shape": [3, 64, 64]}, "cell0.Wco": {"mean": 0.9998803734779358, "std": 0.0006897566490806639, "min": 0.9990084767341614, "max": 1.000989317893982, "norm": 110.83801437091654, "shape": [3, 64, 64]}, "cell0.bi": {"mean": -0.00033334875479340553, "std": 0.0009427308687008917, "min": -0.0009999950416386127, "max": 0.0009998739697039127, "norm": 0.0017319320309296244, "shape": [3, 1, 1]}, "cell0.bf": {"mean": -0.00033331464510411024, "std": 0.0009427543845959008, "min": -0.0009999953908845782, "max": 0.0009999413741752505, "norm": 0.0017319507386925053, "shape": [3, 1, 1]}, "cell0.bc": {"mean": -0.0009999710600823164, "std": 2.795858833337661e-08, "min": -0.0009999993490055203, "max": -0.000999932992272079, "norm": 0.0017320006907113308, "shape": [3, 1, 1]}, "cell0.bo": {"mean": -0.0003335125220473856, "std": 0.0009425096213817596, "min": -0.000999993528239429, "max": 0.0009993973653763533, "norm": 0.001731665374109664, "shape": [3, 1, 1]}, "cell0.Wxi.weight": {"mean": 0.0012450123904272914, "std": 0.0626705214381218, "min": -0.10893478989601135, "max": 0.10787124931812286, "norm": 2.3934686241412346, "shape": [3, 54, 3, 3]}, "cell0.Wxi.bias": {"mean": -0.00033334875479340553, "std": 0.0009427308687008917, "min": -0.0009999950416386127, "max": 0.0009998739697039127, "norm": 0.0017319320309296244, "shape": [3]}, "cell0.Whi.weight": {"mean": 0.008454479277133942, "std": 0.1832389235496521, "min": -0.31916293501853943, "max": 0.33421027660369873, "norm": 1.6509047570809512, "shape": [3, 3, 3, 3]}, "cell0.Whi.bias": {"mean": -0.00033334875479340553, "std": 0.0009427308687008917, "min": -0.0009999950416386127, "max": 0.0009998739697039127, "norm": 0.0017319320309296244, "shape": [3]}, "cell0.Wxf.weight": {"mean": 0.002288160379976034, "std": 0.06210704520344734, "min": -0.10822176933288574, "max": 0.10845383256673813, "norm": 2.373089875510613, "shape": [3, 54, 3, 3]}, "cell0.Wxf.bias": {"mean": -0.00033331464510411024, "std": 0.0009427543845959008, "min": -0.0009999953908845782, "max": 0.0009999413741752505, "norm": 0.0017319507386925053, "shape": [3]}, "cell0.Whf.weight": {"mean": -0.028671499341726303, "std": 0.20284155011177063, "min": -0.3332456052303314, "max": 0.3261421024799347, "norm": 1.8437209046217935, "shape": [3, 3, 3, 3]}, "cell0.Whf.bias": {"mean": -0.00033331464510411024, "std": 0.0009427543845959008, "min": -0.0009999953908845782, "max": 0.0009999413741752505, "norm": 0.0017319507386925053, "shape": [3]}, "cell0.Wxo.weight": {"mean": 0.0010450329864397645, "std": 0.06343201547861099, "min": -0.10844597965478897, "max": 0.10875920206308365, "norm": 2.4224018139226415, "shape": [3, 54, 3, 3]}, "cell0.Wxo.bias": {"mean": -0.0003335125220473856, "std": 0.0009425096213817596, "min": -0.000999993528239429, "max": 0.0009993973653763533, "norm": 0.001731665374109664, "shape": [3]}, "cell0.Who.weight": {"mean": -0.019565699622035027, "std": 0.20115473866462708, "min": -0.32997167110443115, "max": 0.3259074091911316, "norm": 1.8189364622825066, "shape": [3, 3, 3, 3]}, "cell0.Who.bias": {"mean": -0.0003335125220473856, "std": 0.0009425096213817596, "min": -0.000999993528239429, "max": 0.0009993973653763533, "norm": 0.001731665374109664, "shape": [3]}, "cell0.Wxc.weight": {"mean": 0.00031917335581965744, "std": 0.06072547286748886, "min": -0.10907773673534393, "max": 0.1090783104300499, "norm": 2.318759179932553, "shape": [3, 54, 3, 3]}, "cell0.Wxc.bias": {"mean": -0.0009999710600823164, "std": 2.795858833337661e-08, "min": -0.0009999993490055203, "max": -0.000999932992272079, "norm": 0.0017320006907113308, "shape": [3]}, "cell0.Whc.weight": {"mean": 0.020875565707683563, "std": 0.17347882688045502, "min": -0.31732743978500366, "max": 0.3227337598800659, "norm": 1.57257312113411, "shape": [3, 3, 3, 3]}, "cell0.Whc.bias": {"mean": -0.0009999710600823164, "std": 2.795858833337661e-08, "min": -0.0009999993490055203, "max": -0.000999932992272079, "norm": 0.0017320006907113308, "shape": [3]}, "cell1.Wci": {"mean": 0.9999799132347107, "std": 0.000269766547717154, "min": 0.9990785717964172, "max": 1.0008844137191772, "norm": 221.69806325270412, "shape": [48, 32, 32]}, "cell1.Wcf": {"mean": 0.9999845027923584, "std": 0.00031150708673521876, "min": 0.9990543723106384, "max": 1.0009069442749023, "norm": 221.6990675724641, "shape": [48, 32, 32]}, "cell1.Wco": {"mean": 0.9999874234199524, "std": 0.0003312350600026548, "min": 0.9990560412406921, "max": 1.0009135007858276, "norm": 221.69970187733676, "shape": [48, 32, 32]}, "cell1.bi": {"mean": -0.00021107612701598555, "std": 0.0009736787178553641, "min": -0.0009999658213928342, "max": 0.000999937765300274, "norm": 0.006902533163271246, "shape": [48, 1, 1]}, "cell1.bf": {"mean": -0.00029104086570441723, "std": 0.0009508613729849458, "min": -0.0009999575559049845, "max": 0.0009999335743486881, "norm": 0.006889443064121992, "shape": [48, 1, 1]}, "cell1.bc": {"mean": 1.646064085036869e-08, "std": 0.000999972689896822, "min": -0.000999998301267624, "max": 0.0009999971371144056, "norm": 0.006928013790192852, "shape": [48, 1, 1]}, "cell1.bo": {"mean": -0.0002923659048974514, "std": 0.0009539116290397942, "min": -0.0009999568574130535, "max": 0.0009999191388487816, "norm": 0.0069123377591814045, "shape": [48, 1, 1]}, "cell1.Wxi.weight": {"mean": -0.00027736008632928133, "std": 0.030489815399050713, "min": -0.053687576204538345, "max": 0.053698670119047165, "norm": 8.781429845522648, "shape": [48, 192, 3, 3]}, "cell1.Wxi.bias": {"mean": -0.00021107612701598555, "std": 0.0009736787178553641, "min": -0.0009999658213928342, "max": 0.000999937765300274, "norm": 0.006902533163271246, "shape": [48]}, "cell1.Whi.weight": {"mean": -7.128099241526797e-05, "std": 0.0478929840028286, "min": -0.08429941534996033, "max": 0.08425482362508774, "norm": 6.896596937360211, "shape": [48, 48, 3, 3]}, "cell1.Whi.bias": {"mean": -0.00021107612701598555, "std": 0.0009736787178553641, "min": -0.0009999658213928342, "max": 0.000999937765300274, "norm": 0.006902533163271246, "shape": [48]}, "cell1.Wxf.weight": {"mean": -0.00016604525444563478, "std": 0.030403342097997665, "min": -0.05369853973388672, "max": 0.0536901019513607, "norm": 8.756293077383331, "shape": [48, 192, 3, 3]}, "cell1.Wxf.bias": {"mean": -0.00029104086570441723, "std": 0.0009508613729849458, "min": -0.0009999575559049845, "max": 0.0009999335743486881, "norm": 0.006889443064121992, "shape": [48]}, "cell1.Whf.weight": {"mean": 0.00040755985537543893, "std": 0.048144858330488205, "min": -0.08431842923164368, "max": 0.08426617830991745, "norm": 6.933107377307338, "shape": [48, 48, 3, 3]}, "cell1.Whf.bias": {"mean": -0.00029104086570441723, "std": 0.0009508613729849458, "min": -0.0009999575559049845, "max": 0.0009999335743486881, "norm": 0.006889443064121992, "shape": [48]}, "cell1.Wxo.weight": {"mean": -0.00021437546820379794, "std": 0.030343588441610336, "min": -0.05369044467806816, "max": 0.05369536951184273, "norm": 8.73917002073808, "shape": [48, 192, 3, 3]}, "cell1.Wxo.bias": {"mean": -0.0002923659048974514, "std": 0.0009539116290397942, "min": -0.0009999568574130535, "max": 0.0009999191388487816, "norm": 0.0069123377591814045, "shape": [48]}, "cell1.Who.weight": {"mean": 0.00036903959698975086, "std": 0.04821205511689186, "min": -0.08428158611059189, "max": 0.08431944996118546, "norm": 6.9427393468768415, "shape": [48, 48, 3, 3]}, "cell1.Who.bias": {"mean": -0.0002923659048974514, "std": 0.0009539116290397942, "min": -0.0009999568574130535, "max": 0.0009999191388487816, "norm": 0.0069123377591814045, "shape": [48]}, "cell1.Wxc.weight": {"mean": 3.523592386045493e-05, "std": 0.030489902943372726, "min": -0.05370303988456726, "max": 0.05370317026972771, "norm": 8.78109795381045, "shape": [48, 192, 3, 3]}, "cell1.Wxc.bias": {"mean": 1.646064085036869e-08, "std": 0.000999972689896822, "min": -0.000999998301267624, "max": 0.0009999971371144056, "norm": 0.006928013790192852, "shape": [48]}, "cell1.Whc.weight": {"mean": 0.00010903931251959875, "std": 0.047986216843128204, "min": -0.08431414514780045, "max": 0.08432245254516602, "norm": 6.910033419537916, "shape": [48, 48, 3, 3]}, "cell1.Whc.bias": {"mean": 1.646064085036869e-08, "std": 0.000999972689896822, "min": -0.000999998301267624, "max": 0.0009999971371144056, "norm": 0.006928013790192852, "shape": [48]}, "cell2.Wci": {"mean": 0.9999855160713196, "std": 0.0002733183209784329, "min": 0.9991024732589722, "max": 1.0008960962295532, "norm": 156.76511963563516, "shape": [96, 16, 16]}, "cell2.Wcf": {"mean": 0.9999777674674988, "std": 0.00030887764296494424, "min": 0.9990926384925842, "max": 1.0008994340896606, "norm": 156.76386127907477, "shape": [96, 16, 16]}, "cell2.Wco": {"mean": 0.9999813437461853, "std": 0.0003360871924087405, "min": 0.9990957975387573, "max": 1.0008918046951294, "norm": 156.76443439321625, "shape": [96, 16, 16]}, "cell2.bi": {"mean": -8.283409260911867e-05, "std": 0.0009929367806762457, "min": -0.0009998363675549626, "max": 0.000999751966446638, "norm": 0.009762548170567306, "shape": [96, 1, 1]}, "cell2.bf": {"mean": -0.00014067234587855637, "std": 0.0009828939801082015, "min": -0.0009998170426115394, "max": 0.0009997334564104676, "norm": 0.009728486251939882, "shape": [96, 1, 1]}, "cell2.bc": {"mean": -6.249811121961102e-05, "std": 0.000997984316200018, "min": -0.00099999422673136, "max": 0.0009999941103160381, "norm": 0.00979736504696132, "shape": [96, 1, 1]}, "cell2.bo": {"mean": -8.234714186983183e-05, "std": 0.000992979621514678, "min": -0.000999819370917976, "max": 0.0009997721062973142, "norm": 0.009762571274619158, "shape": [96, 1, 1]}, "cell2.Wxi.weight": {"mean": -2.891221083700657e-05, "std": 0.021534433588385582, "min": -0.03826446458697319, "max": 0.03826012462377548, "norm": 12.403837262436484, "shape": [96, 384, 3, 3]}, "cell2.Wxi.bias": {"mean": -8.283409260911867e-05, "std": 0.0009929367806762457, "min": -0.0009998363675549626, "max": 0.000999751966446638, "norm": 0.009762548170567306, "shape": [96]}, "cell2.Whi.weight": {"mean": -3.681700400193222e-05, "std": 0.03404497355222702, "min": -0.059904273599386215, "max": 0.05985994264483452, "norm": 9.804958288093326, "shape": [96, 96, 3, 3]}, "cell2.Whi.bias": {"mean": -8.283409260911867e-05, "std": 0.0009929367806762457, "min": -0.0009998363675549626, "max": 0.000999751966446638, "norm": 0.009762548170567306, "shape": [96]}, "cell2.Wxf.weight": {"mean": -3.835433744825423e-05, "std": 0.02155013009905815, "min": -0.03824814036488533, "max": 0.03826415538787842, "norm": 12.412887988216433, "shape": [96, 384, 3, 3]}, "cell2.Wxf.bias": {"mean": -0.00014067234587855637, "std": 0.0009828939801082015, "min": -0.0009998170426115394, "max": 0.0009997334564104676, "norm": 0.009728486251939882, "shape": [96]}, "cell2.Whf.weight": {"mean": -6.214546738192439e-05, "std": 0.03406359627842903, "min": -0.059903159737586975, "max": 0.059915777295827866, "norm": 9.810331262873069, "shape": [96, 96, 3, 3]}, "cell2.Whf.bias": {"mean": -0.00014067234587855637, "std": 0.0009828939801082015, "min": -0.0009998170426115394, "max": 0.0009997334564104676, "norm": 0.009728486251939882, "shape": [96]}, "cell2.Wxo.weight": {"mean": -1.1015174095518887e-05, "std": 0.0215317290276289, "min": -0.03826005384325981, "max": 0.03826158493757248, "norm": 12.402268085399113, "shape": [96, 384, 3, 3]}, "cell2.Wxo.bias": {"mean": -8.234714186983183e-05, "std": 0.000992979621514678, "min": -0.000999819370917976, "max": 0.0009997721062973142, "norm": 0.009762571274619158, "shape": [96]}, "cell2.Who.weight": {"mean": 1.4193514061844326e-06, "std": 0.03408048301935196, "min": -0.0598934032022953, "max": 0.05989231541752815, "norm": 9.815178961033231, "shape": [96, 96, 3, 3]}, "cell2.Who.bias": {"mean": -8.234714186983183e-05, "std": 0.000992979621514678, "min": -0.000999819370917976, "max": 0.0009997721062973142, "norm": 0.009762571274619158, "shape": [96]}, "cell2.Wxc.weight": {"mean": -3.722908513736911e-05, "std": 0.021531399339437485, "min": -0.03826538845896721, "max": 0.03826567158102989, "norm": 12.402095839057683, "shape": [96, 384, 3, 3]}, "cell2.Wxc.bias": {"mean": -6.249811121961102e-05, "std": 0.000997984316200018, "min": -0.00099999422673136, "max": 0.0009999941103160381, "norm": 0.00979736504696132, "shape": [96]}, "cell2.Whc.weight": {"mean": -0.00018657387408893555, "std": 0.03400731086730957, "min": -0.05992455780506134, "max": 0.05992140993475914, "norm": 9.794251402463997, "shape": [96, 96, 3, 3]}, "cell2.Whc.bias": {"mean": -6.249811121961102e-05, "std": 0.000997984316200018, "min": -0.00099999422673136, "max": 0.0009999941103160381, "norm": 0.00979736504696132, "shape": [96]}, "cell3.Wci": {"mean": 1.0000146627426147, "std": 0.0002571317018009722, "min": 0.9991122484207153, "max": 1.0008527040481567, "norm": 110.85286824632685, "shape": [192, 8, 8]}, "cell3.Wcf": {"mean": 1.000020980834961, "std": 0.0002911783813033253, "min": 0.9991127252578735, "max": 1.0008621215820312, "norm": 110.8535730070867, "shape": [192, 8, 8]}, "cell3.Wco": {"mean": 1.0000280141830444, "std": 0.0003234693722333759, "min": 0.9991093277931213, "max": 1.0009047985076904, "norm": 110.85436145287655, "shape": [192, 8, 8]}, "cell3.bi": {"mean": -7.028658728813753e-05, "std": 0.0009811193449422717, "min": -0.0009995753644034266, "max": 0.0009993023704737425, "norm": 0.013629628265756533, "shape": [192, 1, 1]}, "cell3.bf": {"mean": -4.259880006429739e-05, "std": 0.0009784552967175841, "min": -0.000999497133307159, "max": 0.0009991630213335156, "norm": 0.013570716761229206, "shape": [192, 1, 1]}, "cell3.bc": {"mean": 0.00011464220733614638, "std": 0.0009931711247190833, "min": -0.0009999875910580158, "max": 0.00099998340010643, "norm": 0.013853161751275704, "shape": [192, 1, 1]}, "cell3.bo": {"mean": -6.882560410303995e-05, "std": 0.0009759361273609102, "min": -0.0009995215805247426, "max": 0.0009992808336392045, "norm": 0.013556554977260205, "shape": [192, 1, 1]}, "cell3.Wxi.weight": {"mean": -3.496031786198728e-05, "std": 0.019651954993605614, "min": -0.03501302748918533, "max": 0.035008154809474945, "norm": 16.008232859597882, "shape": [192, 384, 3, 3]}, "cell3.Wxi.bias": {"mean": -7.028658728813753e-05, "std": 0.0009811193449422717, "min": -0.0009995753644034266, "max": 0.0009993023704737425, "norm": 0.013629628265756533, "shape": [192]}, "cell3.Whi.weight": {"mean": 6.0156253312015906e-05, "std": 0.02408307045698166, "min": -0.04262771084904671, "max": 0.04261583089828491, "norm": 13.871887407772103, "shape": [192, 192, 3, 3]}, "cell3.Whi.bias": {"mean": -7.028658728813753e-05, "std": 0.0009811193449422717, "min": -0.0009995753644034266, "max": 0.0009993023704737425, "norm": 0.013629628265756533, "shape": [192]}, "cell3.Wxf.weight": {"mean": -5.174646503292024e-05, "std": 0.019643377512693405, "min": -0.03499837964773178, "max": 0.035003673285245895, "norm": 16.001272150964084, "shape": [192, 384, 3, 3]}, "cell3.Wxf.bias": {"mean": -4.259880006429739e-05, "std": 0.0009784552967175841, "min": -0.000999497133307159, "max": 0.0009991630213335156, "norm": 0.013570716761229206, "shape": [192]}, "cell3.Whf.weight": {"mean": -3.7893234548391774e-05, "std": 0.02407461404800415, "min": -0.04262050986289978, "max": 0.04260658845305443, "norm": 13.866991635940725, "shape": [192, 192, 3, 3]}, "cell3.Whf.bias": {"mean": -4.259880006429739e-05, "std": 0.0009784552967175841, "min": -0.000999497133307159, "max": 0.0009991630213335156, "norm": 0.013570716761229206, "shape": [192]}, "cell3.Wxo.weight": {"mean": -5.339838025975041e-05, "std": 0.019673041999340057, "min": -0.03500601276755333, "max": 0.034989356994628906, "norm": 16.025449539996824, "shape": [192, 384, 3, 3]}, "cell3.Wxo.bias": {"mean": -6.882560410303995e-05, "std": 0.0009759361273609102, "min": -0.0009995215805247426, "max": 0.0009992808336392045, "norm": 0.013556554977260205, "shape": [192]}, "cell3.Who.weight": {"mean": -3.3412543416488916e-05, "std": 0.024050496518611908, "min": -0.042633846402168274, "max": 0.042608778923749924, "norm": 13.85309032570948, "shape": [192, 192, 3, 3]}, "cell3.Who.bias": {"mean": -6.882560410303995e-05, "std": 0.0009759361273609102, "min": -0.0009995215805247426, "max": 0.0009992808336392045, "norm": 0.013556554977260205, "shape": [192]}, "cell3.Wxc.weight": {"mean": 9.05633787624538e-05, "std": 0.019657231867313385, "min": -0.03502018377184868, "max": 0.03502006083726883, "norm": 16.012669315678796, "shape": [192, 384, 3, 3]}, "cell3.Wxc.bias": {"mean": 0.00011464220733614638, "std": 0.0009931711247190833, "min": -0.0009999875910580158, "max": 0.00099998340010643, "norm": 0.013853161751275704, "shape": [192]}, "cell3.Whc.weight": {"mean": 5.640910967485979e-05, "std": 0.024058209732174873, "min": -0.042665477842092514, "max": 0.04266143962740898, "norm": 13.857559928179489, "shape": [192, 192, 3, 3]}, "cell3.Whc.bias": {"mean": 0.00011464220733614638, "std": 0.0009931711247190833, "min": -0.0009999875910580158, "max": 0.00099998340010643, "norm": 0.013853161751275704, "shape": [192]}, "conv0.0.weight": {"mean": -0.019915688782930374, "std": 0.17563918232917786, "min": -0.3260546028614044, "max": 0.3288622498512268, "norm": 1.5908822082130831, "shape": [3, 3, 3, 3]}, "conv0.0.bias": {"mean": -0.0009999112226068974, "std": 1.2388890979764255e-07, "min": -0.0009999991161748767, "max": -0.0009997360175475478, "norm": 0.001731896977945665, "shape": [3]}, "conv1.0.weight": {"mean": -0.0004559372609946877, "std": 0.048282939940690994, "min": -0.08432969450950623, "max": 0.0843128114938736, "norm": 6.9530525803812875, "shape": [48, 48, 3, 3]}, "conv1.0.bias": {"mean": -0.00016669044271111488, "std": 0.0009857123950496316, "min": -0.0009999953908845782, "max": 0.0009999884059652686, "norm": 0.006926175131304079, "shape": [48]}, "conv2.0.weight": {"mean": -1.2197672731417697e-05, "std": 0.033984340727329254, "min": -0.05991767346858978, "max": 0.059924278408288956, "norm": 9.787489975574568, "shape": [96, 96, 3, 3]}, "conv2.0.bias": {"mean": -7.988457218743861e-05, "std": 0.0009930459782481194, "min": -0.0009999859612435102, "max": 0.0009999838657677174, "norm": 0.009761254629081666, "shape": [96]}, "conv3.0.weight": {"mean": 6.170022243168205e-05, "std": 0.024079717695713043, "min": -0.04266142100095749, "max": 0.04266069456934929, "norm": 13.869955709616335, "shape": [192, 192, 3, 3]}, "conv3.0.bias": {"mean": -3.575109803932719e-05, "std": 0.0009947094367817044, "min": -0.0009999573230743408, "max": 0.0009999613976106048, "norm": 0.013791997738298017, "shape": [192]}, "update_A0.0.weight": {"mean": 0.00048981630243361, "std": 0.0634286105632782, "min": -0.11176387220621109, "max": 0.11199985444545746, "norm": 3.229354131035755, "shape": [48, 6, 3, 3]}, "update_A0.0.bias": {"mean": 1.1932570487260818e-08, "std": 0.0009999660542234778, "min": -0.0009999965550377965, "max": 0.0009999956237152219, "norm": 0.006927967580238253, "shape": [48]}, "update_A1.0.weight": {"mean": -0.00021116728021297604, "std": 0.03411911427974701, "min": -0.05991438403725624, "max": 0.05992143973708153, "norm": 9.826492343772856, "shape": [96, 96, 3, 3]}, "update_A1.0.bias": {"mean": -8.330622949870303e-05, "std": 0.0009963735938072205, "min": -0.0009999882895499468, "max": 0.0009999875910580158, "norm": 0.009796490915587867, "shape": [96]}, "update_A2.0.weight": {"mean": -3.0209746910259128e-05, "std": 0.0240839421749115, "min": -0.042664460837841034, "max": 0.04266548156738281, "norm": 13.872354891099397, "shape": [192, 192, 3, 3]}, "update_A2.0.bias": {"mean": -5.1964456361019984e-05, "std": 0.0009983264608308673, "min": -0.0009999758331105113, "max": 0.0009999647736549377, "norm": 0.013851944763080165, "shape": [192]}, "transformer_E0.attention.in_proj_weight": {"mean": -0.021512703970074654, "std": 0.2743273675441742, "min": -0.4956977069377899, "max": 0.47325292229652405, "norm": 2.859646143330233, "shape": [18, 6]}, "transformer_E0.attention.in_proj_bias": {"mean": -0.0001110526209231466, "std": 0.0008088104659691453, "min": -0.000999999581836164, "max": 0.0009999996982514858, "norm": 0.003463686956219826, "shape": [18]}, "transformer_E0.attention.out_proj.weight": {"mean": 0.0267030019313097, "std": 0.22621756792068481, "min": -0.4024316370487213, "max": 0.407224178314209, "norm": 1.366728831055914, "shape": [6, 6]}, "transformer_E0.attention.out_proj.bias": {"mean": -1.3581787083882801e-10, "std": 0.000999999581836164, "min": -0.0009999998146668077, "max": 0.0009999999310821295, "norm": 0.0024494886722042464, "shape": [6]}, "transformer_E0.norm1.weight": {"mean": 0.9996667504310608, "std": 0.0009426915203221142, "min": 0.9990000128746033, "max": 1.000999927520752, "norm": 2.4486745324026233, "shape": [6]}, "transformer_E0.norm1.bias": {"mean": -5.617039278149605e-08, "std": 0.0009999033063650131, "min": -0.000999986776150763, "max": 0.0009999900357797742, "norm": 0.0024492527926366276, "shape": [6]}, "transformer_E0.ff.0.weight": {"mean": 0.033276889473199844, "std": 0.22293680906295776, "min": -0.4027535021305084, "max": 0.3946029841899872, "norm": 1.9126391665619198, "shape": [12, 6]}, "transformer_E0.ff.0.bias": {"mean": -0.032702457159757614, "std": 0.24619148671627045, "min": -0.38699740171432495, "max": 0.3449693024158478, "norm": 0.8603233999607293, "shape": [12]}, "transformer_E0.ff.2.weight": {"mean": -0.020558614283800125, "std": 0.17762689292430878, "min": -0.2876863479614258, "max": 0.2852102816104889, "norm": 1.517275746977969, "shape": [6, 12]}, "transformer_E0.ff.2.bias": {"mean": -0.07019221037626266, "std": 0.1640262007713318, "min": -0.22881072759628296, "max": 0.1835833340883255, "norm": 0.43702315842983674, "shape": [6]}, "transformer_E0.norm2.weight": {"mean": 0.9999999403953552, "std": 0.0009998580208048224, "min": 0.9990000128746033, "max": 1.0010000467300415, "norm": 2.449490716122758, "shape": [6]}, "transformer_E0.norm2.bias": {"mean": -0.000999996904283762, "std": 1.0226453017736503e-09, "min": -0.0009999974863603711, "max": -0.0009999945759773254, "norm": 0.0024494820816235844, "shape": [6]}}}
{"epoch": 1, "step": 1, "batch_idx": 0, "parameters": {"alpha_E0": {"mean": 0.4980905055999756, "std": 0.0, "min": 0.4980905055999756, "max": 0.4980905055999756, "norm": 0.4980905102332989, "shape": []}, "cell0.Wci": {"mean": 0.9998138546943665, "std": 0.0010614283382892609, "min": 0.9983544945716858, "max": 1.0018030405044556, "norm": 110.83067920537616, "shape": [3, 64, 64]}, "cell0.Wcf": {"mean": 0.9998394846916199, "std": 0.0011707209050655365, "min": 0.9983464479446411, "max": 1.0018569231033325, "norm": 110.83353403020676, "shape": [3, 64, 64]}, "cell0.Wco": {"mean": 1.000028133392334, "std": 0.0010678427061066031, "min": 0.9982518553733826, "max": 1.0019006729125977, "norm": 110.85443633291136, "shape": [3, 64, 64]}, "cell0.bi": {"mean": -0.0010846949880942702, "std": 0.0011187870986759663, "min": -0.001999787986278534, "max": 0.0004906532121822238, "norm": 0.0026990263676004637, "shape": [3, 1, 1]}, "cell0.bf": {"mean": -0.0008916088263504207, "std": 0.0013468069955706596, "min": -0.00198156270198524, "max": 0.0010060817003250122, "norm": 0.0027975999904626746, "shape": [3, 1, 1]}, "cell0.bc": {"mean": -0.0006868617492727935, "std": 0.0005241378676146269, "min": -0.0014270321698859334, "max": -0.0002822579990606755, "norm": 0.0014964953630521973, "shape": [3, 1, 1]}, "cell0.bo": {"mean": -0.001207723980769515, "std": 0.001078661298379302, "min": -0.001996486447751522, "max": 0.00031743370345793664, "norm": 0.0028046963363331607, "shape": [3, 1, 1]}, "cell0.Wxi.weight": {"mean": 0.001160379615612328, "std": 0.06270649284124374, "min": -0.10865695029497147, "max": 0.10844855010509491, "norm": 2.39478025650773, "shape": [3, 54, 3, 3]}, "cell0.Wxi.bias": {"mean": -0.0010846949880942702, "std": 0.0011187870986759663, "min": -0.001999787986278534, "max": 0.0004906532121822238, "norm": 0.0026990263676004637, "shape": [3]}, "cell0.Whi.weight": {"mean": 0.008385298773646355, "std": 0.1831965148448944, "min": -0.31924086809158325, "max": 0.3349117338657379, "norm": 1.6504949232021628, "shape": [3, 3, 3, 3]}, "cell0.Whi.bias": {"mean": -0.0010846949880942702, "std": 0.0011187870986759663, "min": -0.001999787986278534, "max": 0.0004906532121822238, "norm": 0.0026990263676004637, "shape": [3]}, "cell0.Wxf.weight": {"mean": 0.0022032582201063633, "std": 0.062081873416900635, "min": -0.10888855904340744, "max": 0.10926445573568344, "norm": 2.3720120155454714, "shape": [3, 54, 3, 3]}, "cell0.Wxf.bias": {"mean": -0.0008916088263504207, "std": 0.0013468069955706596, "min": -0.00198156270198524, "max": 0.0010060817003250122, "norm": 0.0027975999904626746, "shape": [3]}, "cell0.Whf.weight": {"mean": -0.028552796691656113, "std": 0.2027956247329712, "min": -0.3332982659339905, "max": 0.32548612356185913, "norm": 1.8431624430012357, "shape": [3, 3, 3, 3]}, "cell0.Whf.bias": {"mean": -0.0008916088263504207, "std": 0.0013468069955706596, "min": -0.00198156270198524, "max": 0.0010060817003250122, "norm": 0.0027975999904626746, "shape": [3]}, "cell0.Wxo.weight": {"mean": 0.0009654158493503928, "std": 0.06344339996576309, "min": -0.1092250645160675, "max": 0.10959212481975555, "norm": 2.4227885830438116, "shape": [3, 54, 3, 3]}, "cell0.Wxo.bias": {"mean": -0.001207723980769515, "std": 0.001078661298379302, "min": -0.001996486447751522, "max": 0.00031743370345793664, "norm": 0.0028046963363331607, "shape": [3]}, "cell0.Who.weight": {"mean": -0.019396867603063583, "std": 0.20120051503181458, "min": -0.33022183179855347, "max": 0.32544681429862976, "norm": 1.8192000366496113, "shape": [3, 3, 3, 3]}, "cell0.Who.bias": {"mean": -0.001207723980769515, "std": 0.001078661298379302, "min": -0.001996486447751522, "max": 0.00031743370345793664, "norm": 0.0028046963363331607, "shape": [3]}, "cell0.Wxc.weight": {"mean": 0.0003881179727613926, "std": 0.06067722663283348, "min": -0.10975465923547745, "max": 0.10916168987751007, "norm": 2.316932348298456, "shape": [3, 54, 3, 3]}, "cell0.Wxc.bias": {"mean": -0.0006868617492727935, "std": 0.0005241378676146269, "min": -0.0014270321698859334, "max": -0.0002822579990606755, "norm": 0.0014964953630521973, "shape": [3]}, "cell0.Whc.weight": {"mean": 0.020600447431206703, "std": 0.17345798015594482, "min": -0.316657692193985, "max": 0.3234066963195801, "norm": 1.5720928215645755, "shape": [3, 3, 3, 3]}, "cell0.Whc.bias": {"mean": -0.0006868617492727935, "std": 0.0005241378676146269, "min": -0.0014270321698859334, "max": -0.0002822579990606755, "norm": 0.0014964953630521973, "shape": [3]}, "cell1.Wci": {"mean": 0.9999416470527649, "std": 0.0005610438529402018, "min": 0.9983543157577515, "max": 1.0017733573913574, "norm": 221.6895968324856, "shape": [48, 32, 32]}, "cell1.Wcf": {"mean": 0.9999366402626038, "std": 0.0005953243817202747, "min": 0.9983180165290833, "max": 1.001792073249817, "norm": 221.68846031649912, "shape": [48, 32, 32]}, "cell1.Wco": {"mean": 0.9999386668205261, "std": 0.0006256098859012127, "min": 0.9982510209083557, "max": 1.001795768737793, "norm": 221.68897130890386, "shape": [48, 32, 32]}, "cell1.bi": {"mean": -0.00036616669967770576, "std": 0.001496854005381465, "min": -0.0019982117228209972, "max": 0.0020005644764751196, "norm": 0.010676291245146853, "shape": [48, 1, 1]}, "cell1.bf": {"mean": -0.00042142326128669083, "std": 0.0014856059569865465, "min": -0.0019884437788277864, "max": 0.0020010790321975946, "norm": 0.010698686240777138, "shape": [48, 1, 1]}, "cell1.bc": {"mean": 4.973317845724523e-05, "std": 0.0015743259573355317, "min": -0.002000225242227316, "max": 0.0020013118628412485, "norm": 0.010912691472965528, "shape": [48, 1, 1]}, "cell1.bo": {"mean": -0.0004499945789575577, "std": 0.0014183195307850838, "min": -0.001996870618313551, "max": 0.0020007772836834192, "norm": 0.010309123198478017, "shape": [48, 1, 1]}, "cell1.Wxi.weight": {"mean": -0.0003362316347192973, "std": 0.030507579445838928, "min": -0.054683126509189606, "max": 0.05467907339334488, "norm": 8.786714964267434, "shape": [48, 192, 3, 3]}, "cell1.Wxi.bias": {"mean": -0.00036616669967770576, "std": 0.001496854005381465, "min": -0.0019982117228209972, "max": 0.0020005644764751196, "norm": 0.010676291245146853, "shape": [48]}, "cell1.Whi.weight": {"mean": -8.298613829538226e-05, "std": 0.047906819730997086, "min": -0.08517269045114517, "max": 0.08503244072198868, "norm": 6.898592332633883, "shape": [48, 48, 3, 3]}, "cell1.Whi.bias": {"mean": -0.00036616669967770576, "std": 0.001496854005381465, "min": -0.0019982117228209972, "max": 0.0020005644764751196, "norm": 0.010676291245146853, "shape": [48]}, "cell1.Wxf.weight": {"mean": -0.00025818217545747757, "std": 0.030420584604144096, "min": -0.05463718995451927, "max": 0.05464957281947136, "norm": 8.761445325648955, "shape": [48, 192, 3, 3]}, "cell1.Wxf.bias": {"mean": -0.00042142326128669083, "std": 0.0014856059569865465, "min": -0.0019884437788277864, "max": 0.0020010790321975946, "norm": 0.010698686240777138, "shape": [48]}, "cell1.Whf.weight": {"mean": 0.00039971517981030047, "std": 0.04815869405865669, "min": -0.08503568917512894, "max": 0.08513645827770233, "norm": 6.935090067415423, "shape": [48, 48, 3, 3]}, "cell1.Whf.bias": {"mean": -0.00042142326128669083, "std": 0.0014856059569865465, "min": -0.0019884437788277864, "max": 0.0020010790321975946, "norm": 0.010698686240777138, "shape": [48]}, "cell1.Wxo.weight": {"mean": -0.0002780120703391731, "std": 0.03035876527428627, "min": -0.054635293781757355, "max": 0.054590776562690735, "norm": 8.743690177489244, "shape": [48, 192, 3, 3]}, "cell1.Wxo.bias": {"mean": -0.0004499945789575577, "std": 0.0014183195307850838, "min": -0.001996870618313551, "max": 0.0020007772836834192, "norm": 0.010309123198478017, "shape": [48]}, "cell1.Who.weight": {"mean": 0.0003548500535544008, "std": 0.04822085052728653, "min": -0.08521105349063873, "max": 0.08518661558628082, "norm": 6.943990060139939, "shape": [48, 48, 3, 3]}, "cell1.Who.bias": {"mean": -0.0004499945789575577, "std": 0.0014183195307850838, "min": -0.001996870618313551, "max": 0.0020007772836834192, "norm": 0.010309123198478017, "shape": [48]}, "cell1.Wxc.weight": {"mean": 4.323473331169225e-05, "std": 0.03050968423485756, "min": -0.05470320209860802, "max": 0.054636552929878235, "norm": 8.786797017050505, "shape": [48, 192, 3, 3]}, "cell1.Wxc.bias": {"mean": 4.973317845724523e-05, "std": 0.0015743259573355317, "min": -0.002000225242227316, "max": 0.0020013118628412485, "norm": 0.010912691472965528, "shape": [48]}, "cell1.Whc.weight": {"mean": 0.00011552184878382832, "std": 0.04799717292189598, "min": -0.08524462580680847, "max": 0.08524081110954285, "norm": 6.911611555787529, "shape": [48, 48, 3, 3]}, "cell1.Whc.bias": {"mean": 4.973317845724523e-05, "std": 0.0015743259573355317, "min": -0.002000225242227316, "max": 0.0020013118628412485, "norm": 0.010912691472965528, "shape": [48]}, "cell2.Wci": {"mean": 0.9999391436576843, "std": 0.0005398631910793483, "min": 0.9984176754951477, "max": 1.0017191171646118, "norm": 156.7578185350734, "shape": [96, 16, 16]}, "cell2.Wcf": {"mean": 0.9999210834503174, "std": 0.0005718038300983608, "min": 0.9984443783760071, "max": 1.001747727394104, "norm": 156.7549902016679, "shape": [96, 16, 16]}, "cell2.Wco": {"mean": 0.9999322891235352, "std": 0.0006326014990918338, "min": 0.9983176589012146, "max": 1.0017269849777222, "norm": 156.75675947347534, "shape": [96, 16, 16]}, "cell2.bi": {"mean": -0.00016982259694486856, "std": 0.0015713213942945004, "min": -0.0019988061394542456, "max": 0.0019987018313258886, "norm": 0.015485396006714587, "shape": [96, 1, 1]}, "cell2.bf": {"mean": -0.00024897762341424823, "std": 0.0015561521286144853, "min": -0.002000286243855953, "max": 0.001998079940676689, "norm": 0.015441034127189852, "shape": [96, 1, 1]}, "cell2.bc": {"mean": -0.00013723190932068974, "std": 0.0015803518472239375, "min": -0.0020007870625704527, "max": 0.0020012736786156893, "norm": 0.015542491423342445, "shape": [96, 1, 1]}, "cell2.bo": {"mean": -0.00015814487414900213, "std": 0.001567562809213996, "min": -0.002000250155106187, "max": 0.0020007197745144367, "norm": 0.015436879859100531, "shape": [96, 1, 1]}, "cell2.Wxi.weight": {"mean": -6.0112233768450096e-05, "std": 0.021556351333856583, "min": -0.039219412952661514, "max": 0.03924938663840294, "norm": 12.416501515632143, "shape": [96, 384, 3, 3]}, "cell2.Wxi.bias": {"mean": -0.00016982259694486856, "std": 0.0015713213942945004, "min": -0.0019988061394542456, "max": 0.0019987018313258886, "norm": 0.015485396006714587, "shape": [96]}, "cell2.Whi.weight": {"mean": -4.236555105308071e-05, "std": 0.034055620431900024, "min": -0.060841333121061325, "max": 0.06080687791109085, "norm": 9.80802553050964, "shape": [96, 96, 3, 3]}, "cell2.Whi.bias": {"mean": -0.00016982259694486856, "std": 0.0015713213942945004, "min": -0.0019988061394542456, "max": 0.0019987018313258886, "norm": 0.015485396006714587, "shape": [96]}, "cell2.Wxf.weight": {"mean": -7.190448377514258e-05, "std": 0.021572832018136978, "min": -0.039212584495544434, "max": 0.03923926502466202, "norm": 12.426016408691183, "shape": [96, 384, 3, 3]}, "cell2.Wxf.bias": {"mean": -0.00024897762341424823, "std": 0.0015561521286144853, "min": -0.002000286243855953, "max": 0.001998079940676689, "norm": 0.015441034127189852, "shape": [96]}, "cell2.Whf.weight": {"mean": -6.892828969284892e-05, "std": 0.0340794175863266, "min": -0.06087770313024521, "max": 0.06084596738219261, "norm": 9.814889021725568, "shape": [96, 96, 3, 3]}, "cell2.Whf.bias": {"mean": -0.00024897762341424823, "std": 0.0015561521286144853, "min": -0.002000286243855953, "max": 0.001998079940676689, "norm": 0.015441034127189852, "shape": [96]}, "cell2.Wxo.weight": {"mean": -4.4663447624770924e-05, "std": 0.021552756428718567, "min": -0.039200007915496826, "max": 0.039224520325660706, "norm": 12.414406043665245, "shape": [96, 384, 3, 3]}, "cell2.Wxo.bias": {"mean": -0.00015814487414900213, "std": 0.001567562809213996, "min": -0.002000250155106187, "max": 0.0020007197745144367, "norm": 0.015436879859100531, "shape": [96]}, "cell2.Who.weight": {"mean": -5.8933314903697465e-06, "std": 0.03409155085682869, "min": -0.06085466220974922, "max": 0.06080611050128937, "norm": 9.818365397165946, "shape": [96, 96, 3, 3]}, "cell2.Who.bias": {"mean": -0.00015814487414900213, "std": 0.001567562809213996, "min": -0.002000250155106187, "max": 0.0020007197745144367, "norm": 0.015436879859100531, "shape": [96]}, "cell2.Wxc.weight": {"mean": -9.23341722227633e-05, "std": 0.021560169756412506, "min": -0.039259232580661774, "max": 0.039258405566215515, "norm": 12.418766808462456, "shape": [96, 384, 3, 3]}, "cell2.Wxc.bias": {"mean": -0.00013723190932068974, "std": 0.0015803518472239375, "min": -0.0020007870625704527, "max": 0.0020012736786156893, "norm": 0.015542491423342445, "shape": [96]}, "cell2.Whc.weight": {"mean": -0.00019632164912763983, "std": 0.03402785584330559, "min": -0.060841213911771774, "max": 0.06091291829943657, "norm": 9.800184941006455, "shape": [96, 96, 3, 3]}, "cell2.Whc.bias": {"mean": -0.00013723190932068974, "std": 0.0015803518472239375, "min": -0.0020007870625704527, "max": 0.0020012736786156893, "norm": 0.015542491423342445, "shape": [96]}, "cell3.Wci": {"mean": 0.9999352097511292, "std": 0.000529760611243546, "min": 0.9983968734741211, "max": 1.0016472339630127, "norm": 110.84408478945775, "shape": [192, 8, 8]}, "cell3.Wcf": {"mean": 0.9999372959136963, "std": 0.0005491854390129447, "min": 0.9984747767448425, "max": 1.0016708374023438, "norm": 110.84432266556325, "shape": [192, 8, 8]}, "cell3.Wco": {"mean": 0.9999478459358215, "std": 0.0006086747162044048, "min": 0.9982820749282837, "max": 1.0017231702804565, "norm": 110.84549441818778, "shape": [192, 8, 8]}, "cell3.bi": {"mean": -0.00025274057406932116, "std": 0.0013434778666123748, "min": -0.0019940303172916174, "max": 0.0019927038811147213, "norm": 0.018942323214128472, "shape": [192, 1, 1]}, "cell3.bf": {"mean": -0.00022316125978250057, "std": 0.0014023351250216365, "min": -0.001987830037251115, "max": 0.0019975006580352783, "norm": 0.019675826874752587, "shape": [192, 1, 1]}, "cell3.bc": {"mean": 9.729984594741836e-05, "std": 0.0015236170729622245, "min": -0.0019989931024610996, "max": 0.0019995360635221004, "norm": 0.021154863794338008, "shape": [192, 1, 1]}, "cell3.bo": {"mean": -0.0002377489727223292, "std": 0.0013478213222697377, "min": -0.0019975334871560335, "max": 0.001995053142309189, "norm": 0.01896428778336315, "shape": [192, 1, 1]}, "cell3.Wxi.weight": {"mean": -0.00015941759920679033, "std": 0.01966991275548935, "min": -0.035974614322185516, "max": 0.03594524413347244, "norm": 16.023355603764383, "shape": [192, 384, 3, 3]}, "cell3.Wxi.bias": {"mean": -0.00025274057406932116, "std": 0.0013434778666123748, "min": -0.0019940303172916174, "max": 0.0019927038811147213, "norm": 0.018942323214128472, "shape": [192]}, "cell3.Whi.weight": {"mean": 4.902679211227223e-05, "std": 0.02409527823328972, "min": -0.04356534034013748, "max": 0.043548353016376495, "norm": 13.878905150576934, "shape": [192, 192, 3, 3]}, "cell3.Whi.bias": {"mean": -0.00025274057406932116, "std": 0.0013434778666123748, "min": -0.0019940303172916174, "max": 0.0019927038811147213, "norm": 0.018942323214128472, "shape": [192]}, "cell3.Wxf.weight": {"mean": -0.00016952003352344036, "std": 0.019659604877233505, "min": -0.03596426174044609, "max": 0.03589982911944389, "norm": 16.015029523990798, "shape": [192, 384, 3, 3]}, "cell3.Wxf.bias": {"mean": -0.00022316125978250057, "std": 0.0014023351250216365, "min": -0.001987830037251115, "max": 0.0019975006580352783, "norm": 0.019675826874752587, "shape": [192]}, "cell3.Whf.weight": {"mean": -5.0133636250393465e-05, "std": 0.02408752031624317, "min": -0.043553728610277176, "max": 0.04352250322699547, "norm": 13.874433076290957, "shape": [192, 192, 3, 3]}, "cell3.Whf.bias": {"mean": -0.00022316125978250057, "std": 0.0014023351250216365, "min": -0.001987830037251115, "max": 0.0019975006580352783, "norm": 0.019675826874752587, "shape": [192]}, "cell3.Wxo.weight": {"mean": -0.00017770622798707336, "std": 0.019689029082655907, "min": -0.03593859821557999, "max": 0.03593449667096138, "norm": 16.0390625, "shape": [192, 384, 3, 3]}, "cell3.Wxo.bias": {"mean": -0.0002377489727223292, "std": 0.0013478213222697377, "min": -0.0019975334871560335, "max": 0.001995053142309189, "norm": 0.01896428778336315, "shape": [192]}, "cell3.Who.weight": {"mean": -4.249619451002218e-05, "std": 0.0240628644824028, "min": -0.04350737854838371, "max": 0.04354522377252579, "norm": 13.860222172353234, "shape": [192, 192, 3, 3]}, "cell3.Who.bias": {"mean": -0.0002377489727223292, "std": 0.0013478213222697377, "min": -0.0019975334871560335, "max": 0.001995053142309189, "norm": 0.01896428778336315, "shape": [192]}, "cell3.Wxc.weight": {"mean": 4.399423414724879e-05, "std": 0.01968788355588913, "min": -0.0360054150223732, "max": 0.03601781278848648, "norm": 16.037518381894667, "shape": [192, 384, 3, 3]}, "cell3.Wxc.bias": {"mean": 9.729984594741836e-05, "std": 0.0015236170729622245, "min": -0.0019989931024610996, "max": 0.0019995360635221004, "norm": 0.021154863794338008, "shape": [192]}, "cell3.Whc.weight": {"mean": 4.130751040065661e-05, "std": 0.02408413030207157, "min": -0.0436553880572319, "max": 0.0436570830643177, "norm": 13.872478634049088, "shape": [192, 192, 3, 3]}, "cell3.Whc.bias": {"mean": 9.729984594741836e-05, "std": 0.0015236170729622245, "min": -0.0019989931024610996, "max": 0.0019995360635221004, "norm": 0.021154863794338008, "shape": [192]}, "conv0.0.weight": {"mean": -0.01975540816783905, "std": 0.1755399852991104, "min": -0.3267432749271393, "max": 0.3285503685474396, "norm": 1.5898332525183225, "shape": [3, 3, 3, 3]}, "conv0.0.bias": {"mean": -0.001783723826520145, "std": 0.00010291233047610149, "min": -0.0019247239688411355, "max": -0.0016819885931909084, "norm": 0.0030946380366373635, "shape": [3]}, "conv1.0.weight": {"mean": -0.000524512433912605, "std": 0.04828358814120293, "min": -0.0852130874991417, "max": 0.08516540378332138, "norm": 6.953246794930476, "shape": [48, 48, 3, 3]}, "conv1.0.bias": {"mean": -0.00041597048402763903, "std": 0.0015561447944492102, "min": -0.0020003877580165863, "max": 0.0019919266924262047, "norm": 0.011159823666314515, "shape": [48]}, "conv2.0.weight": {"mean": -1.2502873687481042e-05, "std": 0.033996641635894775, "min": -0.060849811881780624, "max": 0.06085367873311043, "norm": 9.791030235439429, "shape": [96, 96, 3, 3]}, "conv2.0.bias": {"mean": -0.0002722505887504667, "std": 0.001536698080599308, "min": -0.002000189619138837, "max": 0.001999167026951909, "norm": 0.015290975003767757, "shape": [96]}, "conv3.0.weight": {"mean": 3.540056786732748e-05, "std": 0.024097811430692673, "min": -0.04364059865474701, "max": 0.043609537184238434, "norm": 13.880351915982658, "shape": [192, 192, 3, 3]}, "conv3.0.bias": {"mean": -0.00024527133791707456, "std": 0.0014373162994161248, "min": -0.002000359119847417, "max": 0.0019857678562402725, "norm": 0.02020393321322875, "shape": [192]}, "update_A0.0.weight": {"mean": 0.0004699364071711898, "std": 0.06337668001651764, "min": -0.11243419349193573, "max": 0.11257681995630264, "norm": 3.2267027448050616, "shape": [48, 6, 3, 3]}, "update_A0.0.bias": {"mean": 0.00010558118810877204, "std": 0.0016260603442788124, "min": -0.001995375845581293, "max": 0.002001002198085189, "norm": 0.01128939853835482, "shape": [48]}, "update_A1.0.weight": {"mean": -0.00020547611347865313, "std": 0.034119244664907455, "min": -0.06088217720389366, "max": 0.06088037043809891, "norm": 9.826520294520986, "shape": [96, 96, 3, 3]}, "update_A1.0.bias": {"mean": -9.133716957876459e-05, "std": 0.0015298224752768874, "min": -0.002001201268285513, "max": 0.0019983919337391853, "norm": 0.015015829822925137, "shape": [96]}, "update_A2.0.weight": {"mean": 2.501665585441515e-05, "std": 0.02409219928085804, "min": -0.04362817108631134, "max": 0.04365171119570732, "norm": 13.87710802715269, "shape": [192, 192, 3, 3]}, "update_A2.0.bias": {"mean": 9.264015716325957e-06, "std": 0.0014020138187333941, "min": -0.002000675303861499, "max": 0.0020008550491183996, "norm": 0.019427297041708726, "shape": [192]}, "transformer_E0.attention.in_proj_weight": {"mean": -0.021565234288573265, "std": 0.27435943484306335, "min": -0.4951004385948181, "max": 0.47392594814300537, "norm": 2.8600212992695333, "shape": [18, 6]}, "transformer_E0.attention.in_proj_bias": {"mean": -0.00019797906861640513, "std": 0.0013005072250962257, "min": -0.0018686300609260798, "max": 0.001987399300560355, "norm": 0.0055811527349757225, "shape": [18]}, "transformer_E0.attention.out_proj.weight": {"mean": 0.026714468374848366, "std": 0.22633466124534607, "min": -0.40234121680259705, "max": 0.40772107243537903, "norm": 1.3674345828628964, "shape": [6, 6]}, "transformer_E0.attention.out_proj.bias": {"mean": -1.6872460264494293e-06, "std": 0.0014240678865462542, "min": -0.0016037870664149523, "max": 0.0017413091845810413, "norm": 0.003488241863856035, "shape": [6]}, "transformer_E0.norm1.weight": {"mean": 0.9995115399360657, "std": 0.0015244251117110252, "min": 0.9980144500732422, "max": 1.0017164945602417, "norm": 2.4482959426438042, "shape": [6]}, "transformer_E0.norm1.bias": {"mean": 7.940649993543047e-06, "std": 0.0014073775382712483, "min": -0.0016701429849490523, "max": 0.002000577049329877, "norm": 0.003447411826563473, "shape": [6]}, "transformer_E0.ff.0.weight": {"mean": 0.033331651240587234, "std": 0.22281834483146667, "min": -0.40249285101890564, "max": 0.39461052417755127, "norm": 1.9117136342144272, "shape": [12, 6]}, "transformer_E0.ff.0.bias": {"mean": -0.03307906165719032, "std": 0.24615108966827393, "min": -0.3876452147960663, "max": 0.3446798026561737, "norm": 0.8603574512293151, "shape": [12]}, "transformer_E0.ff.2.weight": {"mean": -0.020564615726470947, "std": 0.17754743993282318, "min": -0.2883569002151489, "max": 0.28542667627334595, "norm": 1.5166120166504227, "shape": [6, 12]}, "transformer_E0.ff.2.bias": {"mean": -0.0701301172375679, "std": 0.16422466933727264, "min": -0.2294996976852417, "max": 0.18357086181640625, "norm": 0.4374103965282023, "shape": [6]}, "transformer_E0.norm2.weight": {"mean": 0.9997656941413879, "std": 0.0017070192843675613, "min": 0.9980018138885498, "max": 1.0019155740737915, "norm": 2.4489193966094693, "shape": [6]}, "transformer_E0.norm2.bias": {"mean": -0.0019851208198815584, "std": 1.0804320481838658e-05, "min": -0.001994186546653509, "max": -0.0019632375333458185, "norm": 0.004862604756957053, "shape": [6]}}}
{"epoch": 1, "step": 2, "batch_idx": 1, "parameters": {"alpha_E0": {"mean": 0.4972962737083435, "std": 0.0, "min": 0.4972962737083435, "max": 0.4972962737083435, "norm": 0.497296280077068, "shape": []}, "cell0.Wci": {"mean": 0.9996660351753235, "std": 0.0013505618553608656, "min": 0.9977082014083862, "max": 1.0026373863220215, "norm": 110.81434184876522, "shape": [3, 64, 64]}, "cell0.Wcf": {"mean": 0.9996930956840515, "std": 0.0014918743399903178, "min": 0.9976643323898315, "max": 1.0026849508285522, "norm": 110.8173557170762, "shape": [3, 64, 64]}, "cell0.Wco": {"mean": 1.0000313520431519, "std": 0.0013182924594730139, "min": 0.9976571798324585, "max": 1.0026360750198364, "norm": 110.85481513701829, "shape": [3, 64, 64]}, "cell0.bi": {"mean": -0.0016937622567638755, "std": 0.0013080463977530599, "min": -0.002880587475374341, "max": 0.00012849645281676203, "norm": 0.003706676036608603, "shape": [3, 1, 1]}, "cell0.bf": {"mean": -0.0013141437666490674, "std": 0.0016526805702596903, "min": -0.0027083323802798986, "max": 0.0010075145401060581, "norm": 0.0036571820956924593, "shape": [3, 1, 1]}, "cell0.bc": {"mean": -0.0007278532721102238, "std": 0.0008330818964168429, "min": -0.001751595176756382, "max": 0.000288995448499918, "norm": 0.0019160865072709043, "shape": [3, 1, 1]}, "cell0.bo": {"mean": -0.0019289510091766715, "std": 0.001250789500772953, "min": -0.002924388973042369, "max": -0.00016492282156832516, "norm": 0.0039819565336150185, "shape": [3, 1, 1]}, "cell0.Wxi.weight": {"mean": 0.0010973296593874693, "std": 0.06274247169494629, "min": -0.10934508591890335, "max": 0.10909941792488098, "norm": 2.3961102754055994, "shape": [3, 54, 3, 3]}, "cell0.Wxi.bias": {"mean": -0.0016937622567638755, "std": 0.0013080463977530599, "min": -0.002880587475374341, "max": 0.00012849645281676203, "norm": 0.003706676036608603, "shape": [3]}, "cell0.Whi.weight": {"mean": 0.008276560343801975, "std": 0.1831512451171875, "min": -0.31911733746528625, "max": 0.33543407917022705, "norm": 1.6500433742717642, "shape": [3, 3, 3, 3]}, "cell0.Whi.bias": {"mean": -0.0016937622567638755, "std": 0.0013080463977530599, "min": -0.002880587475374341, "max": 0.00012849645281676203, "norm": 0.003706676036608603, "shape": [3]}, "cell0.Wxf.weight": {"mean": 0.002154880203306675, "std": 0.062059275805950165, "min": -0.10940612107515335, "max": 0.10993654280900955, "norm": 2.37108500194664, "shape": [3, 54, 3, 3]}, "cell0.Wxf.bias": {"mean": -0.0013141437666490674, "std": 0.0016526805702596903, "min": -0.0027083323802798986, "max": 0.0010075145401060581, "norm": 0.0036571820956924593, "shape": [3]}, "cell0.Whf.weight": {"mean": -0.028589840978384018, "std": 0.20280121266841888, "min": -0.3333505094051361, "max": 0.3249794840812683, "norm": 1.84325874378899, "shape": [3, 3, 3, 3]}, "cell0.Whf.bias": {"mean": -0.0013141437666490674, "std": 0.0016526805702596903, "min": -0.0027083323802798986, "max": 0.0010075145401060581, "norm": 0.0036571820956924593, "shape": [3]}, "cell0.Wxo.weight": {"mean": 0.0009036825504153967, "std": 0.06345412880182266, "min": -0.10981472581624985, "max": 0.11021846532821655, "norm": 2.423163188311658, "shape": [3, 54, 3, 3]}, "cell0.Wxo.bias": {"mean": -0.0019289510091766715, "std": 0.001250789500772953, "min": -0.002924388973042369, "max": -0.00016492282156832516, "norm": 0.0039819565336150185, "shape": [3]}, "cell0.Who.weight": {"mean": -0.019460877403616905, "std": 0.20125843584537506, "min": -0.3304569721221924, "max": 0.3250957429409027, "norm": 1.8197743025418764, "shape": [3, 3, 3, 3]}, "cell0.Who.bias": {"mean": -0.0019289510091766715, "std": 0.001250789500772953, "min": -0.002924388973042369, "max": -0.00016492282156832516, "norm": 0.0039819565336150185, "shape": [3]}, "cell0.Wxc.weight": {"mean": 0.00042953144293278456, "std": 0.06064051389694214, "min": -0.11027076095342636, "max": 0.10857170820236206, "norm": 2.315541200756031, "shape": [3, 54, 3, 3]}, "cell0.Wxc.bias": {"mean": -0.0007278532721102238, "std": 0.0008330818964168429, "min": -0.001751595176756382, "max": 0.000288995448499918, "norm": 0.0019160865072709043, "shape": [3]}, "cell0.Whc.weight": {"mean": 0.020351532846689224, "std": 0.1734384447336197, "min": -0.31613653898239136, "max": 0.3239298164844513, "norm": 1.5716556858691813, "shape": [3, 3, 3, 3]}, "cell0.Whc.bias": {"mean": -0.0007278532721102238, "std": 0.0008330818964168429, "min": -0.001751595176756382, "max": 0.000288995448499918, "norm": 0.0019160865072709043, "shape": [3]}, "cell1.Wci": {"mean": 0.9999167323112488, "std": 0.0008421082166023552, "min": 0.9975970387458801, "max": 1.0024985074996948, "norm": 221.684125643899, "shape": [48, 32, 32]}, "cell1.Wcf": {"mean": 0.9998953938484192, "std": 0.0008622688474133611, "min": 0.9975736141204834, "max": 1.0025638341903687, "norm": 221.67940322118335, "shape": [48, 32, 32]}, "cell1.Wco": {"mean": 0.9999094009399414, "std": 0.0008970723138190806, "min": 0.997384786605835, "max": 1.0025384426116943, "norm": 221.68253976689277, "shape": [48, 32, 32]}, "cell1.bi": {"mean": -0.0005607699858956039, "std": 0.0019056160235777497, "min": -0.002843399764969945, "max": 0.002854687161743641, "norm": 0.013762270483351505, "shape": [48, 1, 1]}, "cell1.bf": {"mean": -0.0006123498897068202, "std": 0.0018660034984350204, "min": -0.0027634957805275917, "max": 0.0029781819321215153, "norm": 0.013606365819923465, "shape": [48, 1, 1]}, "cell1.bc": {"mean": 7.816970901330933e-05, "std": 0.002038426697254181, "min": -0.002767138881608844, "max": 0.0027883208822458982, "norm": 0.014133014234549638, "shape": [48, 1, 1]}, "cell1.bo": {"mean": -0.0006111290422268212, "std": 0.0018496515695005655, "min": -0.00297182728536427, "max": 0.0028313645161688328, "norm": 0.013496114276064378, "shape": [48, 1, 1]}, "cell1.Wxi.weight": {"mean": -0.0004083467647433281, "std": 0.03052898496389389, "min": -0.05538560450077057, "max": 0.05554204434156418, "norm": 8.793136208700831, "shape": [48, 192, 3, 3]}, "cell1.Wxi.bias": {"mean": -0.0005607699858956039, "std": 0.0019056160235777497, "min": -0.002843399764969945, "max": 0.002854687161743641, "norm": 0.013762270483351505, "shape": [48]}, "cell1.Whi.weight": {"mean": -9.094838605960831e-05, "std": 0.04792242869734764, "min": -0.08602835237979889, "max": 0.08588819205760956, "norm": 6.900841990527145, "shape": [48, 48, 3, 3]}, "cell1.Whi.bias": {"mean": -0.0005607699858956039, "std": 0.0019056160235777497, "min": -0.002843399764969945, "max": 0.002854687161743641, "norm": 0.013762270483351505, "shape": [48]}, "cell1.Wxf.weight": {"mean": -0.000345599721185863, "std": 0.030442843213677406, "min": -0.0554702989757061, "max": 0.05560583248734474, "norm": 8.76810304698117, "shape": [48, 192, 3, 3]}, "cell1.Wxf.bias": {"mean": -0.0006123498897068202, "std": 0.0018660034984350204, "min": -0.0027634957805275917, "max": 0.0029781819321215153, "norm": 0.013606365819923465, "shape": [48]}, "cell1.Whf.weight": {"mean": 0.0003915259731002152, "std": 0.04817043989896774, "min": -0.08584995567798615, "max": 0.0858963206410408, "norm": 6.936772763737646, "shape": [48, 48, 3, 3]}, "cell1.Whf.bias": {"mean": -0.0006123498897068202, "std": 0.0018660034984350204, "min": -0.0027634957805275917, "max": 0.0029781819321215153, "norm": 0.013606365819923465, "shape": [48]}, "cell1.Wxo.weight": {"mean": -0.0003474077384453267, "std": 0.030377129092812538, "min": -0.05549655482172966, "max": 0.05544112250208855, "norm": 8.749185578727635, "shape": [48, 192, 3, 3]}, "cell1.Wxo.bias": {"mean": -0.0006111290422268212, "std": 0.0018496515695005655, "min": -0.00297182728536427, "max": 0.0028313645161688328, "norm": 0.013496114276064378, "shape": [48]}, "cell1.Who.weight": {"mean": 0.0003418831911403686, "std": 0.048230309039354324, "min": -0.08565093576908112, "max": 0.08594048768281937, "norm": 6.945339138464803, "shape": [48, 48, 3, 3]}, "cell1.Who.bias": {"mean": -0.0006111290422268212, "std": 0.0018496515695005655, "min": -0.00297182728536427, "max": 0.0028313645161688328, "norm": 0.013496114276064378, "shape": [48]}, "cell1.Wxc.weight": {"mean": 4.611521217157133e-05, "std": 0.030533647164702415, "min": -0.055494386702775955, "max": 0.05561745911836624, "norm": 8.79370190052144, "shape": [48, 192, 3, 3]}, "cell1.Wxc.bias": {"mean": 7.816970901330933e-05, "std": 0.002038426697254181, "min": -0.002767138881608844, "max": 0.0027883208822458982, "norm": 0.014133014234549638, "shape": [48]}, "cell1.Whc.weight": {"mean": 0.00012096768477931619, "std": 0.04800920560956001, "min": -0.08598525077104568, "max": 0.08614055812358856, "norm": 6.913347144755316, "shape": [48, 48, 3, 3]}, "cell1.Whc.bias": {"mean": 7.816970901330933e-05, "std": 0.002038426697254181, "min": -0.002767138881608844, "max": 0.0027883208822458982, "norm": 0.014133014234549638, "shape": [48]}, "cell2.Wci": {"mean": 0.9998698234558105, "std": 0.0007832597475498915, "min": 0.9977155327796936, "max": 1.0023194551467896, "norm": 156.74699708048635, "shape": [96, 16, 16]}, "cell2.Wcf": {"mean": 0.9998428821563721, "std": 0.0008053594501689076, "min": 0.9977123141288757, "max": 1.0023880004882812, "norm": 156.74276049869098, "shape": [96, 16, 16]}, "cell2.Wco": {"mean": 0.9998767971992493, "std": 0.0008931989432312548, "min": 0.9977168440818787, "max": 1.002487063407898, "norm": 156.74808735874578, "shape": [96, 16, 16]}, "cell2.bi": {"mean": -0.00032337629818357527, "std": 0.001997060142457485, "min": -0.0029435267206281424, "max": 0.0028420384041965008, "norm": 0.019821978956922247, "shape": [96, 1, 1]}, "cell2.bf": {"mean": -0.0003948116209357977, "std": 0.0020152912475168705, "min": -0.0029208839405328035, "max": 0.0027632773853838444, "norm": 0.02012109507298933, "shape": [96, 1, 1]}, "cell2.bc": {"mean": -0.00021029669733252376, "std": 0.0020488749723881483, "min": -0.0027519487775862217, "max": 0.002854114631190896, "norm": 0.020180260520165867, "shape": [96, 1, 1]}, "cell2.bo": {"mean": -0.00032507957075722516, "std": 0.001975456951186061, "min": -0.0029924886766821146, "max": 0.0029519295785576105, "norm": 0.019615764601589994, "shape": [96, 1, 1]}, "cell2.Wxi.weight": {"mean": -0.0001095994230126962, "std": 0.02158164605498314, "min": -0.040163811296224594, "max": 0.0401022844016552, "norm": 12.431178954752365, "shape": [96, 384, 3, 3]}, "cell2.Wxi.bias": {"mean": -0.00032337629818357527, "std": 0.001997060142457485, "min": -0.0029435267206281424, "max": 0.0028420384041965008, "norm": 0.019821978956922247, "shape": [96]}, "cell2.Whi.weight": {"mean": -3.718482912518084e-05, "std": 0.03406864032149315, "min": -0.06158267706632614, "max": 0.06177166849374771, "norm": 9.81177377139402, "shape": [96, 96, 3, 3]}, "cell2.Whi.bias": {"mean": -0.00032337629818357527, "std": 0.001997060142457485, "min": -0.0029435267206281424, "max": 0.0028420384041965008, "norm": 0.019821978956922247, "shape": [96]}, "cell2.Wxf.weight": {"mean": -0.0001190641414723359, "std": 0.021601025015115738, "min": -0.04006066545844078, "max": 0.04007181525230408, "norm": 12.442371430379477, "shape": [96, 384, 3, 3]}, "cell2.Wxf.bias": {"mean": -0.0003948116209357977, "std": 0.0020152912475168705, "min": -0.0029208839405328035, "max": 0.0027632773853838444, "norm": 0.02012109507298933, "shape": [96]}, "cell2.Whf.weight": {"mean": -6.478415161836892e-05, "std": 0.034097447991371155, "min": -0.06172419711947441, "max": 0.06174052506685257, "norm": 9.82007942742509, "shape": [96, 96, 3, 3]}, "cell2.Whf.bias": {"mean": -0.0003948116209357977, "std": 0.0020152912475168705, "min": -0.0029208839405328035, "max": 0.0027632773853838444, "norm": 0.02012109507298933, "shape": [96]}, "cell2.Wxo.weight": {"mean": -0.00010177798685617745, "std": 0.021578313782811165, "min": -0.04009666293859482, "max": 0.040127430111169815, "norm": 12.429241870154305, "shape": [96, 384, 3, 3]}, "cell2.Wxo.bias": {"mean": -0.00032507957075722516, "std": 0.001975456951186061, "min": -0.0029924886766821146, "max": 0.0029519295785576105, "norm": 0.019615764601589994, "shape": [96]}, "cell2.Who.weight": {"mean": 5.266629159450531e-07, "std": 0.03410566225647926, "min": -0.06173262000083923, "max": 0.0617559589445591, "norm": 9.822429710985267, "shape": [96, 96, 3, 3]}, "cell2.Who.bias": {"mean": -0.00032507957075722516, "std": 0.001975456951186061, "min": -0.0029924886766821146, "max": 0.0029519295785576105, "norm": 0.019615764601589994, "shape": [96]}, "cell2.Wxc.weight": {"mean": -0.00014722696505486965, "std": 0.02159462682902813, "min": -0.04020831733942032, "max": 0.040166232734918594, "norm": 12.438786885763946, "shape": [96, 384, 3, 3]}, "cell2.Wxc.bias": {"mean": -0.00021029669733252376, "std": 0.0020488749723881483, "min": -0.0027519487775862217, "max": 0.002854114631190896, "norm": 0.020180260520165867, "shape": [96]}, "cell2.Whc.weight": {"mean": -0.00020274797861929983, "std": 0.0340488962829113, "min": -0.061694368720054626, "max": 0.061679620295763016, "norm": 9.80625532161065, "shape": [96, 96, 3, 3]}, "cell2.Whc.bias": {"mean": -0.00021029669733252376, "std": 0.0020488749723881483, "min": -0.0027519487775862217, "max": 0.002854114631190896, "norm": 0.020180260520165867, "shape": [96]}, "cell3.Wci": {"mean": 0.999862015247345, "std": 0.0007864768267609179, "min": 0.9979243874549866, "max": 1.0024644136428833, "norm": 110.83599229266638, "shape": [192, 8, 8]}, "cell3.Wcf": {"mean": 0.9998543858528137, "std": 0.0007841881597414613, "min": 0.998029887676239, "max": 1.0023987293243408, "norm": 110.83514644506948, "shape": [192, 8, 8]}, "cell3.Wco": {"mean": 0.9998824000358582, "std": 0.0008776690228842199, "min": 0.9977203011512756, "max": 1.0025478601455688, "norm": 110.8382654760981, "shape": [192, 8, 8]}, "cell3.bi": {"mean": -0.000498857581987977, "std": 0.0015630800044164062, "min": -0.0029053762555122375, "max": 0.0025290169287472963, "norm": 0.022734971005862976, "shape": [192, 1, 1]}, "cell3.bf": {"mean": -0.00047193406498990953, "std": 0.0016813988331705332, "min": -0.0029834157321602106, "max": 0.002570307580754161, "norm": 0.024198474299146143, "shape": [192, 1, 1]}, "cell3.bc": {"mean": 6.908590876264498e-05, "std": 0.0019455914152786136, "min": -0.0029746771324425936, "max": 0.0029047238640487194, "norm": 0.02697589489513705, "shape": [192, 1, 1]}, "cell3.bo": {"mean": -0.000483102718135342, "std": 0.0015646618558093905, "min": -0.0028323435690253973, "max": 0.0026116787921637297, "norm": 0.02269049401681514, "shape": [192, 1, 1]}, "cell3.Wxi.weight": {"mean": -0.00032111795735545456, "std": 0.019688518717885017, "min": -0.03683531656861305, "max": 0.0365794412791729, "norm": 16.040127978492137, "shape": [192, 384, 3, 3]}, "cell3.Wxi.bias": {"mean": -0.000498857581987977, "std": 0.0015630800044164062, "min": -0.0029053762555122375, "max": 0.0025290169287472963, "norm": 0.022734971005862976, "shape": [192]}, "cell3.Whi.weight": {"mean": 4.3743460992118344e-05, "std": 0.024115240201354027, "min": -0.04447844251990318, "max": 0.04438060149550438, "norm": 13.890395412543045, "shape": [192, 192, 3, 3]}, "cell3.Whi.bias": {"mean": -0.000498857581987977, "std": 0.0015630800044164062, "min": -0.0029053762555122375, "max": 0.0025290169287472963, "norm": 0.022734971005862976, "shape": [192]}, "cell3.Wxf.weight": {"mean": -0.00032406215905211866, "std": 0.019677160307765007, "min": -0.03675847873091698, "max": 0.03661857172846794, "norm": 16.030907342829195, "shape": [192, 384, 3, 3]}, "cell3.Wxf.bias": {"mean": -0.00047193406498990953, "std": 0.0016813988331705332, "min": -0.0029834157321602106, "max": 0.002570307580754161, "norm": 0.024198474299146143, "shape": [192]}, "cell3.Whf.weight": {"mean": -5.7483430282445624e-05, "std": 0.02410692162811756, "min": -0.044353071600198746, "max": 0.04439575597643852, "norm": 13.88561550645718, "shape": [192, 192, 3, 3]}, "cell3.Whf.bias": {"mean": -0.00047193406498990953, "std": 0.0016813988331705332, "min": -0.0029834157321602106, "max": 0.002570307580754161, "norm": 0.024198474299146143, "shape": [192]}, "cell3.Wxo.weight": {"mean": -0.00033962648012675345, "std": 0.01970578171312809, "min": -0.0367097482085228, "max": 0.036671560257673264, "norm": 16.05444228827336, "shape": [192, 384, 3, 3]}, "cell3.Wxo.bias": {"mean": -0.000483102718135342, "std": 0.0015646618558093905, "min": -0.0028323435690253973, "max": 0.0026116787921637297, "norm": 0.02269049401681514, "shape": [192]}, "cell3.Who.weight": {"mean": -4.596164944814518e-05, "std": 0.024082601070404053, "min": -0.044369809329509735, "max": 0.044507816433906555, "norm": 13.871593710188707, "shape": [192, 192, 3, 3]}, "cell3.Who.bias": {"mean": -0.000483102718135342, "std": 0.0015646618558093905, "min": -0.0028323435690253973, "max": 0.0026116787921637297, "norm": 0.02269049401681514, "shape": [192]}, "cell3.Wxc.weight": {"mean": -7.86776581662707e-06, "std": 0.019721081480383873, "min": -0.03695135936141014, "max": 0.03692201152443886, "norm": 16.06451094689442, "shape": [192, 384, 3, 3]}, "cell3.Wxc.bias": {"mean": 6.908590876264498e-05, "std": 0.0019455914152786136, "min": -0.0029746771324425936, "max": 0.0029047238640487194, "norm": 0.02697589489513705, "shape": [192]}, "cell3.Whc.weight": {"mean": 3.0887389584677294e-05, "std": 0.024116139858961105, "min": -0.044640302658081055, "max": 0.04457136243581772, "norm": 13.890902916581435, "shape": [192, 192, 3, 3]}, "cell3.Whc.bias": {"mean": 6.908590876264498e-05, "std": 0.0019455914152786136, "min": -0.0029746771324425936, "max": 0.0029047238640487194, "norm": 0.02697589489513705, "shape": [192]}, "conv0.0.weight": {"mean": -0.01978776417672634, "std": 0.17543095350265503, "min": -0.32754403352737427, "max": 0.3279956579208374, "norm": 1.5888906710436117, "shape": [3, 3, 3, 3]}, "conv0.0.bias": {"mean": -0.0024586233776062727, "std": 0.00013203169510234147, "min": -0.0026415581814944744, "max": -0.0023347565438598394, "norm": 0.004264596956519726, "shape": [3]}, "conv1.0.weight": {"mean": -0.0005889871390536427, "std": 0.04828780144453049, "min": -0.08598869293928146, "max": 0.08588950335979462, "norm": 6.953960514231879, "shape": [48, 48, 3, 3]}, "conv1.0.bias": {"mean": -0.0007044935482554138, "std": 0.00202201958745718, "min": -0.0029870630241930485, "max": 0.0029588539618998766, "norm": 0.014834890262600393, "shape": [48]}, "conv2.0.weight": {"mean": -5.443896498036338e-07, "std": 0.034010112285614014, "min": -0.061760757118463516, "max": 0.0618072971701622, "norm": 9.794910775479753, "shape": [96, 96, 3, 3]}, "conv2.0.bias": {"mean": -0.000553710269741714, "std": 0.0019558612257242203, "min": -0.0029859498608857393, "max": 0.002884206362068653, "norm": 0.019916598355158334, "shape": [96]}, "conv3.0.weight": {"mean": 1.6017920643207617e-05, "std": 0.024119826033711433, "min": -0.04459919035434723, "max": 0.044589634984731674, "norm": 13.893011825658633, "shape": [192, 192, 3, 3]}, "conv3.0.bias": {"mean": -0.00046535395085811615, "std": 0.0017544645816087723, "min": -0.002957339631393552, "max": 0.002911205170676112, "norm": 0.025151192122575723, "shape": [192]}, "update_A0.0.weight": {"mean": 0.00046020071022212505, "std": 0.06330902129411697, "min": -0.11320174485445023, "max": 0.11342530697584152, "norm": 3.2232544130002045, "shape": [48, 6, 3, 3]}, "update_A0.0.bias": {"mean": 0.0002039128594333306, "std": 0.0021111282985657454, "min": -0.0029474706389009953, "max": 0.0029493968468159437, "norm": 0.014694395093899545, "shape": [48]}, "update_A1.0.weight": {"mean": -0.0001628223981242627, "std": 0.03411765769124031, "min": -0.06177036836743355, "max": 0.06184143200516701, "norm": 9.825996204762935, "shape": [96, 96, 3, 3]}, "update_A1.0.bias": {"mean": -1.1936936061829329e-05, "std": 0.0018824967555701733, "min": -0.0028726791497319937, "max": 0.002999754622578621, "norm": 0.018444996586214506, "shape": [96]}, "update_A2.0.weight": {"mean": 5.0284455937799066e-05, "std": 0.024097297340631485, "min": -0.04438755661249161, "max": 0.04462852329015732, "norm": 13.880061695500435, "shape": [192, 192, 3, 3]}, "update_A2.0.bias": {"mean": 3.22750311170239e-05, "std": 0.0016433259006589651, "min": -0.0030004093423485756, "max": 0.002996574155986309, "norm": 0.022774983536798597, "shape": [192]}, "transformer_E0.attention.in_proj_weight": {"mean": -0.021600857377052307, "std": 0.27433526515960693, "min": -0.49457255005836487, "max": 0.47434699535369873, "norm": 2.8597997131108475, "shape": [18, 6]}, "transformer_E0.attention.in_proj_bias": {"mean": -0.0002313967706868425, "std": 0.0016155112534761429, "min": -0.0025040311738848686, "max": 0.0023745358921587467, "norm": 0.006923985540002171, "shape": [18]}, "transformer_E0.attention.out_proj.weight": {"mean": 0.026775628328323364, "std": 0.2264525294303894, "min": -0.40176138281822205, "max": 0.4081052839756012, "norm": 1.368180094481373, "shape": [6, 6]}, "transformer_E0.attention.out_proj.bias": {"mean": -0.00010124046821147203, "std": 0.0019195553613826632, "min": -0.0021822634153068066, "max": 0.002598891733214259, "norm": 0.004708466170157638, "shape": [6]}, "transformer_E0.norm1.weight": {"mean": 0.9996048808097839, "std": 0.0019104162929579616, "min": 0.9973932504653931, "max": 1.0024243593215942, "norm": 2.448526433657513, "shape": [6]}, "transformer_E0.norm1.bias": {"mean": -8.810911094769835e-05, "std": 0.001969881821423769, "min": -0.0022884190548211336, "max": 0.003001635894179344, "norm": 0.004830029486629856, "shape": [6]}, "transformer_E0.ff.0.weight": {"mean": 0.03339412063360214, "std": 0.22275622189044952, "min": -0.4019447863101959, "max": 0.3951374292373657, "norm": 1.9112708461465402, "shape": [12, 6]}, "transformer_E0.ff.0.bias": {"mean": -0.03343702480196953, "std": 0.2459745556116104, "min": -0.3882196545600891, "max": 0.34425991773605347, "norm": 0.859917556115547, "shape": [12]}, "transformer_E0.ff.2.weight": {"mean": -0.020639963448047638, "std": 0.17748890817165375, "min": -0.2889103889465332, "max": 0.2855943739414215, "norm": 1.5161923005524856, "shape": [6, 12]}, "transformer_E0.ff.2.bias": {"mean": -0.07022342830896378, "std": 0.1643005609512329, "min": -0.23011590540409088, "max": 0.18329548835754395, "norm": 0.4376711340392, "shape": [6]}, "transformer_E0.norm2.weight": {"mean": 0.9996451735496521, "std": 0.0024476363323628902, "min": 0.9970698952674866, "max": 1.0028681755065918, "norm": 2.44862779609341, "shape": [6]}, "transformer_E0.norm2.bias": {"mean": -0.002972402609884739, "std": 1.9173814507666975e-05, "min": -0.0029897592030465603, "max": -0.002933459123596549, "norm": 0.00728102054558651, "shape": [6]}}}
{"epoch": 1, "step": 3, "batch_idx": 1, "parameters": {"alpha_E0": {"mean": 0.4965977966785431, "std": 0.0, "min": 0.4965977966785431, "max": 0.4965977966785431, "norm": 0.4965977999153749, "shape": []}, "cell0.Wci": {"mean": 0.9995457530021667, "std": 0.001630297745577991, "min": 0.9971141219139099, "max": 1.003348469734192, "norm": 110.80105605741085, "shape": [3, 64, 64]}, "cell0.Wcf": {"mean": 0.9995725154876709, "std": 0.0017946268199011683, "min": 0.9970371127128601, "max": 1.0033912658691406, "norm": 110.80405706696844, "shape": [3, 64, 64]}, "cell0.Wco": {"mean": 1.0000327825546265, "std": 0.0015713272150605917, "min": 0.9971367120742798, "max": 1.0032751560211182, "norm": 110.85501775263717, "shape": [3, 64, 64]}, "cell0.bi": {"mean": -0.002188978483900428, "std": 0.0014762250939384103, "min": -0.003604290774092078, "max": -0.00015221406647469848, "norm": 0.004573029941889851, "shape": [3, 1, 1]}, "cell0.bf": {"mean": -0.0016598851652815938, "std": 0.001904851756989956, "min": -0.0033035660162568092, "max": 0.0010103126987814903, "norm": 0.0043761897950564, "shape": [3, 1, 1]}, "cell0.bc": {"mean": -0.0007559543009847403, "std": 0.0011502717388793826, "min": -0.0020154521334916353, "max": 0.0007653867360204458, "norm": 0.002384067055606647, "shape": [3, 1, 1]}, "cell0.bo": {"mean": -0.002516397275030613, "std": 0.0014050930039957166, "min": -0.003689938923344016, "max": -0.000540911394637078, "norm": 0.004991955897608912, "shape": [3, 1, 1]}, "cell0.Wxi.weight": {"mean": 0.0010459715267643332, "std": 0.06277672946453094, "min": -0.10990915447473526, "max": 0.10981141030788422, "norm": 2.3973848598863623, "shape": [3, 54, 3, 3]}, "cell0.Wxi.bias": {"mean": -0.002188978483900428, "std": 0.0014762250939384103, "min": -0.003604290774092078, "max": -0.00015221406647469848, "norm": 0.004573029941889851, "shape": [3]}, "cell0.Whi.weight": {"mean": 0.008187231607735157, "std": 0.18311525881290436, "min": -0.3190156817436218, "max": 0.33586257696151733, "norm": 1.6496837659715151, "shape": [3, 3, 3, 3]}, "cell0.Whi.bias": {"mean": -0.002188978483900428, "std": 0.0014762250939384103, "min": -0.003604290774092078, "max": -0.00015221406647469848, "norm": 0.004573029941889851, "shape": [3]}, "cell0.Wxf.weight": {"mean": 0.002115062437951565, "std": 0.06204499676823616, "min": -0.10983021557331085, "max": 0.11048704385757446, "norm": 2.3704877452907724, "shape": [3, 54, 3, 3]}, "cell0.Wxf.bias": {"mean": -0.0016598851652815938, "std": 0.001904851756989956, "min": -0.0033035660162568092, "max": 0.0010103126987814903, "norm": 0.0043761897950564, "shape": [3]}, "cell0.Whf.weight": {"mean": -0.028620226308703423, "std": 0.2028067708015442, "min": -0.3333931863307953, "max": 0.3245646059513092, "norm": 1.8433464384504143, "shape": [3, 3, 3, 3]}, "cell0.Whf.bias": {"mean": -0.0016598851652815938, "std": 0.001904851756989956, "min": -0.0033035660162568092, "max": 0.0010103126987814903, "norm": 0.0043761897950564, "shape": [3]}, "cell0.Wxo.weight": {"mean": 0.0008538038237020373, "std": 0.0634676143527031, "min": -0.11037658154964447, "max": 0.11076412349939346, "norm": 2.4236519478239185, "shape": [3, 54, 3, 3]}, "cell0.Wxo.bias": {"mean": -0.002516397275030613, "std": 0.0014050930039957166, "min": -0.003689938923344016, "max": -0.000540911394637078, "norm": 0.004991955897608912, "shape": [3]}, "cell0.Who.weight": {"mean": -0.019513502717018127, "std": 0.20130693912506104, "min": -0.3306492865085602, "max": 0.3255017399787903, "norm": 1.8202544108933199, "shape": [3, 3, 3, 3]}, "cell0.Who.bias": {"mean": -0.002516397275030613, "std": 0.0014050930039957166, "min": -0.003689938923344016, "max": -0.000540911394637078, "norm": 0.004991955897608912, "shape": [3]}, "cell0.Wxc.weight": {"mean": 0.00046433223178610206, "std": 0.06061409041285515, "min": -0.11069222539663315, "max": 0.10908472537994385, "norm": 2.314542229462256, "shape": [3, 54, 3, 3]}, "cell0.Wxc.bias": {"mean": -0.0007559543009847403, "std": 0.0011502717388793826, "min": -0.0020154521334916353, "max": 0.0007653867360204458, "norm": 0.002384067055606647, "shape": [3]}, "cell0.Whc.weight": {"mean": 0.02014753967523575, "std": 0.17342333495616913, "min": -0.3157103955745697, "max": 0.3243577480316162, "norm": 1.5713075739858922, "shape": [3, 3, 3, 3]}, "cell0.Whc.bias": {"mean": -0.0007559543009847403, "std": 0.0011502717388793826, "min": -0.0020154521334916353, "max": 0.0007653867360204458, "norm": 0.002384067055606647, "shape": [3]}, "cell1.Wci": {"mean": 0.9998984336853027, "std": 0.0010954877361655235, "min": 0.9969759583473206, "max": 1.0031241178512573, "norm": 221.68007282455497, "shape": [48, 32, 32]}, "cell1.Wcf": {"mean": 0.99986332654953, "std": 0.0011045451974496245, "min": 0.9969324469566345, "max": 1.0032070875167847, "norm": 221.6723810745263, "shape": [48, 32, 32]}, "cell1.Wco": {"mean": 0.9998877644538879, "std": 0.0011552699143067002, "min": 0.9967021346092224, "max": 1.00315523147583, "norm": 221.67779087845042, "shape": [48, 32, 32]}, "cell1.bi": {"mean": -0.0007240904378704727, "std": 0.002288199495524168, "min": -0.003621527925133705, "max": 0.0036746077239513397, "norm": 0.016627924513730612, "shape": [48, 1, 1]}, "cell1.bf": {"mean": -0.0007720617577433586, "std": 0.0022307534236460924, "min": -0.003494671545922756, "max": 0.003812671173363924, "norm": 0.016354581956439934, "shape": [48, 1, 1]}, "cell1.bc": {"mean": 0.00010418323654448614, "std": 0.002428016159683466, "min": -0.0033971318043768406, "max": 0.0034308203030377626, "norm": 0.016837268251789425, "shape": [48, 1, 1]}, "cell1.bo": {"mean": -0.000743015029001981, "std": 0.0022535701282322407, "min": -0.0037894733250141144, "max": 0.0036634905263781548, "norm": 0.016439926369465386, "shape": [48, 1, 1]}, "cell1.Wxi.weight": {"mean": -0.0004677452379837632, "std": 0.03055502288043499, "min": -0.05616292729973793, "max": 0.05631113797426224, "norm": 8.800876608449208, "shape": [48, 192, 3, 3]}, "cell1.Wxi.bias": {"mean": -0.0007240904378704727, "std": 0.002288199495524168, "min": -0.003621527925133705, "max": 0.0036746077239513397, "norm": 0.016627924513730612, "shape": [48]}, "cell1.Whi.weight": {"mean": -9.762826812220737e-05, "std": 0.04794122278690338, "min": -0.08654384315013885, "max": 0.08664771914482117, "norm": 6.903550669099221, "shape": [48, 48, 3, 3]}, "cell1.Whi.bias": {"mean": -0.0007240904378704727, "std": 0.002288199495524168, "min": -0.003621527925133705, "max": 0.0036746077239513397, "norm": 0.016627924513730612, "shape": [48]}, "cell1.Wxf.weight": {"mean": -0.00041755993152037263, "std": 0.030469302088022232, "min": -0.056246500462293625, "max": 0.05635863542556763, "norm": 8.775980281143498, "shape": [48, 192, 3, 3]}, "cell1.Wxf.bias": {"mean": -0.0007720617577433586, "std": 0.0022307534236460924, "min": -0.003494671545922756, "max": 0.003812671173363924, "norm": 0.016354581956439934, "shape": [48]}, "cell1.Whf.weight": {"mean": 0.00038456590846180916, "std": 0.048185884952545166, "min": -0.086545430123806, "max": 0.0865178257226944, "norm": 6.938987503728789, "shape": [48, 48, 3, 3]}, "cell1.Whf.bias": {"mean": -0.0007720617577433586, "std": 0.0022307534236460924, "min": -0.003494671545922756, "max": 0.003812671173363924, "norm": 0.016354581956439934, "shape": [48]}, "cell1.Wxo.weight": {"mean": -0.0004041374777443707, "std": 0.030400685966014862, "min": -0.05625857785344124, "max": 0.05620690807700157, "norm": 8.756169351319352, "shape": [48, 192, 3, 3]}, "cell1.Wxo.bias": {"mean": -0.000743015029001981, "std": 0.0022535701282322407, "min": -0.0037894733250141144, "max": 0.0036634905263781548, "norm": 0.016439926369465386, "shape": [48]}, "cell1.Who.weight": {"mean": 0.00033129495568573475, "std": 0.04824284836649895, "min": -0.0863979160785675, "max": 0.08662588149309158, "norm": 6.947133017693511, "shape": [48, 48, 3, 3]}, "cell1.Who.bias": {"mean": -0.000743015029001981, "std": 0.0022535701282322407, "min": -0.0037894733250141144, "max": 0.0036634905263781548, "norm": 0.016439926369465386, "shape": [48]}, "cell1.Wxc.weight": {"mean": 4.933730815537274e-05, "std": 0.030560217797756195, "min": -0.05629567801952362, "max": 0.05641425773501396, "norm": 8.801353385197801, "shape": [48, 192, 3, 3]}, "cell1.Wxc.bias": {"mean": 0.00010418323654448614, "std": 0.002428016159683466, "min": -0.0033971318043768406, "max": 0.0034308203030377626, "norm": 0.016837268251789425, "shape": [48]}, "cell1.Whc.weight": {"mean": 0.00012553913984447718, "std": 0.0480235293507576, "min": -0.08666115999221802, "max": 0.0868966206908226, "norm": 6.915412452075741, "shape": [48, 48, 3, 3]}, "cell1.Whc.bias": {"mean": 0.00010418323654448614, "std": 0.002428016159683466, "min": -0.0033971318043768406, "max": 0.0034308203030377626, "norm": 0.016837268251789425, "shape": [48]}, "cell2.Wci": {"mean": 0.9998071789741516, "std": 0.000992815475910902, "min": 0.9971452951431274, "max": 1.0029100179672241, "norm": 156.73720292658663, "shape": [96, 16, 16]}, "cell2.Wcf": {"mean": 0.9997671246528625, "std": 0.0010071522556245327, "min": 0.9971120953559875, "max": 1.0029397010803223, "norm": 156.73094730700123, "shape": [96, 16, 16]}, "cell2.Wco": {"mean": 0.9998283982276917, "std": 0.0011313583236187696, "min": 0.9972026348114014, "max": 1.0031185150146484, "norm": 156.74054247784775, "shape": [96, 16, 16]}, "cell2.bi": {"mean": -0.000489089812617749, "std": 0.002348418114706874, "min": -0.0037524693179875612, "max": 0.0035413738805800676, "norm": 0.023503414489676095, "shape": [96, 1, 1]}, "cell2.bf": {"mean": -0.0005523368599824607, "std": 0.0023936848156154156, "min": -0.003725511021912098, "max": 0.0033652386628091335, "norm": 0.024069504018461283, "shape": [96, 1, 1]}, "cell2.bc": {"mean": -0.00027185093495063484, "std": 0.002432579407468438, "min": -0.0034124949015676975, "max": 0.0035407296381890774, "norm": 0.023982685888561246, "shape": [96, 1, 1]}, "cell2.bo": {"mean": -0.0005045753787271678, "std": 0.00231992918998003, "min": -0.00381958344951272, "max": 0.0035468570422381163, "norm": 0.023261990145229935, "shape": [96, 1, 1]}, "cell2.Wxi.weight": {"mean": -0.00016258949472103268, "std": 0.02161087654531002, "min": -0.041012801229953766, "max": 0.04088716208934784, "norm": 12.4482099724641, "shape": [96, 384, 3, 3]}, "cell2.Wxi.bias": {"mean": -0.000489089812617749, "std": 0.002348418114706874, "min": -0.0037524693179875612, "max": 0.0035413738805800676, "norm": 0.023503414489676095, "shape": [96]}, "cell2.Whi.weight": {"mean": -2.3567468815599568e-05, "std": 0.03408561646938324, "min": -0.062334444373846054, "max": 0.06256268918514252, "norm": 9.816659616706358, "shape": [96, 96, 3, 3]}, "cell2.Whi.bias": {"mean": -0.000489089812617749, "std": 0.002348418114706874, "min": -0.0037524693179875612, "max": 0.0035413738805800676, "norm": 0.023503414489676095, "shape": [96]}, "cell2.Wxf.weight": {"mean": -0.00017038412624970078, "std": 0.02163287065923214, "min": -0.04083538427948952, "max": 0.04095272719860077, "norm": 12.46090811125061, "shape": [96, 384, 3, 3]}, "cell2.Wxf.bias": {"mean": -0.0005523368599824607, "std": 0.0023936848156154156, "min": -0.003725511021912098, "max": 0.0033652386628091335, "norm": 0.024069504018461283, "shape": [96]}, "cell2.Whf.weight": {"mean": -5.4110601922729984e-05, "std": 0.03411777317523956, "min": -0.0624675378203392, "max": 0.06246631219983101, "norm": 9.825929429837986, "shape": [96, 96, 3, 3]}, "cell2.Whf.bias": {"mean": -0.0005523368599824607, "std": 0.0023936848156154156, "min": -0.003725511021912098, "max": 0.0033652386628091335, "norm": 0.024069504018461283, "shape": [96]}, "cell2.Wxo.weight": {"mean": -0.00016302074072882533, "std": 0.021608367562294006, "min": -0.04085080698132515, "max": 0.04092445597052574, "norm": 12.446764078874326, "shape": [96, 384, 3, 3]}, "cell2.Wxo.bias": {"mean": -0.0005045753787271678, "std": 0.00231992918998003, "min": -0.00381958344951272, "max": 0.0035468570422381163, "norm": 0.023261990145229935, "shape": [96]}, "cell2.Who.weight": {"mean": 1.4610588550567627e-05, "std": 0.03412299603223801, "min": -0.06263897567987442, "max": 0.06254054605960846, "norm": 9.827421663525707, "shape": [96, 96, 3, 3]}, "cell2.Who.bias": {"mean": -0.0005045753787271678, "std": 0.00231992918998003, "min": -0.00381958344951272, "max": 0.0035468570422381163, "norm": 0.023261990145229935, "shape": [96]}, "cell2.Wxc.weight": {"mean": -0.00019185591372661293, "std": 0.02163117192685604, "min": -0.04100891575217247, "max": 0.040992461144924164, "norm": 12.460034988868536, "shape": [96, 384, 3, 3]}, "cell2.Wxc.bias": {"mean": -0.00027185093495063484, "std": 0.002432579407468438, "min": -0.0034124949015676975, "max": 0.0035407296381890774, "norm": 0.023982685888561246, "shape": [96]}, "cell2.Whc.weight": {"mean": -0.0002062159328488633, "std": 0.03407113999128342, "min": -0.06246786192059517, "max": 0.06231201812624931, "norm": 9.81266638742291, "shape": [96, 96, 3, 3]}, "cell2.Whc.bias": {"mean": -0.00027185093495063484, "std": 0.002432579407468438, "min": -0.0034124949015676975, "max": 0.0035407296381890774, "norm": 0.023982685888561246, "shape": [96]}, "cell3.Wci": {"mean": 0.9997883439064026, "std": 0.0009960831375792623, "min": 0.9974632263183594, "max": 1.003038763999939, "norm": 110.82784193006286, "shape": [192, 8, 8]}, "cell3.Wcf": {"mean": 0.9997689723968506, "std": 0.0009765310096554458, "min": 0.9976092576980591, "max": 1.0029369592666626, "norm": 110.82569630251596, "shape": [192, 8, 8]}, "cell3.Wco": {"mean": 0.9998186230659485, "std": 0.0011085130972787738, "min": 0.9971048831939697, "max": 1.0030796527862549, "norm": 110.83122550470603, "shape": [192, 8, 8]}, "cell3.bi": {"mean": -0.0007508625858463347, "std": 0.0017538833199068904, "min": -0.003753919154405594, "max": 0.0029170482885092497, "norm": 0.02643597975750967, "shape": [192, 1, 1]}, "cell3.bf": {"mean": -0.000732181768398732, "std": 0.0019169978331774473, "min": -0.0038448795676231384, "max": 0.0029510215390473604, "norm": 0.028434245742429542, "shape": [192, 1, 1]}, "cell3.bc": {"mean": 4.093635288882069e-05, "std": 0.0022899871692061424, "min": -0.0038778537418693304, "max": 0.0036239204928278923, "norm": 0.031736063879756936, "shape": [192, 1, 1]}, "cell3.bo": {"mean": -0.0007269338821060956, "std": 0.0017478532390668988, "min": -0.0036078467965126038, "max": 0.002793065505102277, "norm": 0.026230086968598302, "shape": [192, 1, 1]}, "cell3.Wxi.weight": {"mean": -0.0004888846888206899, "std": 0.019709646701812744, "min": -0.03777162358164787, "max": 0.037162184715270996, "norm": 16.060142017463413, "shape": [192, 384, 3, 3]}, "cell3.Wxi.bias": {"mean": -0.0007508625858463347, "std": 0.0017538833199068904, "min": -0.003753919154405594, "max": 0.0029170482885092497, "norm": 0.02643597975750967, "shape": [192]}, "cell3.Whi.weight": {"mean": 4.391604306874797e-05, "std": 0.024139143526554108, "min": -0.04536633938550949, "max": 0.0451262928545475, "norm": 13.904159560224123, "shape": [192, 192, 3, 3]}, "cell3.Whi.bias": {"mean": -0.0007508625858463347, "std": 0.0017538833199068904, "min": -0.003753919154405594, "max": 0.0029170482885092497, "norm": 0.02643597975750967, "shape": [192]}, "cell3.Wxf.weight": {"mean": -0.0004887845134362578, "std": 0.01969682238996029, "min": -0.03757225722074509, "max": 0.037156496196985245, "norm": 16.04969889040465, "shape": [192, 384, 3, 3]}, "cell3.Wxf.bias": {"mean": -0.000732181768398732, "std": 0.0019169978331774473, "min": -0.0038448795676231384, "max": 0.0029510215390473604, "norm": 0.028434245742429542, "shape": [192]}, "cell3.Whf.weight": {"mean": -5.7373039453523234e-05, "std": 0.024130430072546005, "min": -0.04511187970638275, "max": 0.045209046453237534, "norm": 13.899158787143715, "shape": [192, 192, 3, 3]}, "cell3.Whf.bias": {"mean": -0.000732181768398732, "std": 0.0019169978331774473, "min": -0.0038448795676231384, "max": 0.0029510215390473604, "norm": 0.028434245742429542, "shape": [192]}, "cell3.Wxo.weight": {"mean": -0.0005039956886321306, "std": 0.019725190475583076, "min": -0.037397585809230804, "max": 0.03722101077437401, "norm": 16.07311518462682, "shape": [192, 384, 3, 3]}, "cell3.Wxo.bias": {"mean": -0.0007269338821060956, "std": 0.0017478532390668988, "min": -0.0036078467965126038, "max": 0.002793065505102277, "norm": 0.026230086968598302, "shape": [192]}, "cell3.Who.weight": {"mean": -4.617304875864647e-05, "std": 0.02410699799656868, "min": -0.045249104499816895, "max": 0.04535505920648575, "norm": 13.885647374282904, "shape": [192, 192, 3, 3]}, "cell3.Who.bias": {"mean": -0.0007269338821060956, "std": 0.0017478532390668988, "min": -0.0036078467965126038, "max": 0.002793065505102277, "norm": 0.026230086968598302, "shape": [192]}, "cell3.Wxc.weight": {"mean": -5.996036998112686e-05, "std": 0.019754450768232346, "min": -0.037789762020111084, "max": 0.03766268491744995, "norm": 16.0917702058964, "shape": [192, 384, 3, 3]}, "cell3.Wxc.bias": {"mean": 4.093635288882069e-05, "std": 0.0022899871692061424, "min": -0.0038778537418693304, "max": 0.0036239204928278923, "norm": 0.031736063879756936, "shape": [192]}, "cell3.Whc.weight": {"mean": 2.2455575162894093e-05, "std": 0.02415110357105732, "min": -0.04555405303835869, "max": 0.04551742598414421, "norm": 13.911033236360447, "shape": [192, 192, 3, 3]}, "cell3.Whc.bias": {"mean": 4.093635288882069e-05, "std": 0.0022899871692061424, "min": -0.0038778537418693304, "max": 0.0036239204928278923, "norm": 0.031736063879756936, "shape": [192]}, "conv0.0.weight": {"mean": -0.019817253574728966, "std": 0.17534363269805908, "min": -0.32819998264312744, "max": 0.32768332958221436, "norm": 1.5881395508491032, "shape": [3, 3, 3, 3]}, "conv0.0.bias": {"mean": -0.003017411334440112, "std": 0.0001700780267128721, "min": -0.0032385934609919786, "max": -0.0028249749448150396, "norm": 0.005234605475578639, "shape": [3]}, "conv1.0.weight": {"mean": -0.0006461931043304503, "std": 0.04829488322138786, "min": -0.08675399422645569, "max": 0.08650338649749756, "norm": 6.955086077905451, "shape": [48, 48, 3, 3]}, "conv1.0.bias": {"mean": -0.0009764358401298523, "std": 0.002425833372399211, "min": -0.003988462965935469, "max": 0.003864272730425, "norm": 0.018117078072944114, "shape": [48]}, "conv2.0.weight": {"mean": 2.320410931133665e-05, "std": 0.034026388078927994, "min": -0.06253111362457275, "max": 0.06271986663341522, "norm": 9.79960260947917, "shape": [96, 96, 3, 3]}, "conv2.0.bias": {"mean": -0.0008568732882849872, "std": 0.002293321304023266, "min": -0.0039783199317753315, "max": 0.0036164261400699615, "norm": 0.023987106389435606, "shape": [96]}, "conv3.0.weight": {"mean": 5.3856774684390984e-06, "std": 0.024144509807229042, "min": -0.04538732022047043, "max": 0.04549479857087135, "norm": 13.907230916949059, "shape": [192, 192, 3, 3]}, "conv3.0.bias": {"mean": -0.0006788911414332688, "std": 0.0020382171496748924, "min": -0.003938218113034964, "max": 0.003718046937137842, "norm": 0.029767814066695028, "shape": [192]}, "update_A0.0.weight": {"mean": 0.0004483363009057939, "std": 0.06324265897274017, "min": -0.11410728842020035, "max": 0.11428524553775787, "norm": 3.2198712516302876, "shape": [48, 6, 3, 3]}, "update_A0.0.bias": {"mean": 0.0002940668200608343, "std": 0.0024937947746366262, "min": -0.0037655832711607218, "max": 0.003934898413717747, "norm": 0.017397222881310452, "shape": [48]}, "update_A1.0.weight": {"mean": -0.00012608080578502268, "std": 0.03411639481782913, "min": -0.06250853091478348, "max": 0.06255851686000824, "norm": 9.8255862306221, "shape": [96, 96, 3, 3]}, "update_A1.0.bias": {"mean": 5.308036270434968e-05, "std": 0.0021509749349206686, "min": -0.003586706006899476, "max": 0.003989687655121088, "norm": 0.021081580602129647, "shape": [96]}, "update_A2.0.weight": {"mean": 8.98459620657377e-05, "std": 0.02410283498466015, "min": -0.04511326551437378, "max": 0.045507363975048065, "norm": 13.883321929841474, "shape": [192, 192, 3, 3]}, "update_A2.0.bias": {"mean": 7.083090167725459e-05, "std": 0.001817612792365253, "min": -0.0036806464195251465, "max": 0.003700199071317911, "norm": 0.02520469760570592, "shape": [192]}, "transformer_E0.attention.in_proj_weight": {"mean": -0.021642819046974182, "std": 0.2743116617202759, "min": -0.49414384365081787, "max": 0.4746919274330139, "norm": 2.859589615569027, "shape": [18, 6]}, "transformer_E0.attention.in_proj_bias": {"mean": -0.00027775566559284925, "std": 0.0018332188483327627, "min": -0.003266514977440238, "max": 0.002794817090034485, "norm": 0.00786645426720137, "shape": [18]}, "transformer_E0.attention.out_proj.weight": {"mean": 0.026828935369849205, "std": 0.22655712068080902, "min": -0.4010593593120575, "max": 0.4084395468235016, "norm": 1.3688408581960263, "shape": [6, 6]}, "transformer_E0.attention.out_proj.bias": {"mean": -0.0002054546494036913, "std": 0.0023631409276276827, "min": -0.0025448878295719624, "max": 0.003317561699077487, "norm": 0.005810325557236428, "shape": [6]}, "transformer_E0.norm1.weight": {"mean": 0.9997302889823914, "std": 0.0022156042978167534, "min": 0.9969397783279419, "max": 1.0028877258300781, "norm": 2.4488350843025515, "shape": [6]}, "transformer_E0.norm1.bias": {"mean": -0.00019662508566398174, "std": 0.0024947798810899258, "min": -0.002742453943938017, "max": 0.0038553650956600904, "norm": 0.006129887945239264, "shape": [6]}, "transformer_E0.ff.0.weight": {"mean": 0.03344259783625603, "std": 0.2227194458246231, "min": -0.40137580037117004, "max": 0.39556899666786194, "norm": 1.9110231519142042, "shape": [12, 6]}, "transformer_E0.ff.0.bias": {"mean": -0.033752188086509705, "std": 0.24577897787094116, "min": -0.38869020342826843, "max": 0.34379181265830994, "norm": 0.8593941079529643, "shape": [12]}, "transformer_E0.ff.2.weight": {"mean": -0.0207198653370142, "std": 0.17743685841560364, "min": -0.2893637716770172, "max": 0.2857312560081482, "norm": 1.5158320020124907, "shape": [6, 12]}, "transformer_E0.ff.2.bias": {"mean": -0.07033517956733704, "std": 0.16429086029529572, "min": -0.23056170344352722, "max": 0.18285050988197327, "norm": 0.4377569227591682, "shape": [6]}, "transformer_E0.norm2.weight": {"mean": 0.9995496273040771, "std": 0.0032129036262631416, "min": 0.9961166977882385, "max": 1.0038405656814575, "norm": 2.4483993595465843, "shape": [6]}, "transformer_E0.norm2.bias": {"mean": -0.00396231422200799, "std": 2.3873517420724966e-05, "min": -0.003986498340964317, "max": -0.003915814217180014, "norm": 0.00970582384385177, "shape": [6]}}}
